{"learner":{"attributes":{"scikit_learn":"{\"_estimator_type\": \"classifier\"}"},"feature_names":["age","tenure_months","monthly_logins","weekly_active_days","avg_session_time","last_login_days_ago","monthly_fee","total_revenue","payment_failures","avg_resolution_time","csat_score","escalations","email_open_rate","marketing_click_rate","nps_score","gender_enc","country_enc","city_enc","customer_segment_enc","signup_channel_enc","contract_type_enc","payment_method_enc","discount_applied_enc","complaint_type_enc","survey_response_enc","engagement_score","login_intensity","feature_adapotion_rate","usage_momentum","revenue_per_feature","effective_cost_per_login","value_gap"],"feature_types":["int","int","int","int","float","int","int","int","int","float","float","int","float","float","int","float","float","float","float","float","float","float","float","float","float","float","int","float","float","float","int","float"],"gradient_booster":{"model":{"gbtree_model_param":{"num_parallel_tree":"1","num_trees":"1905"},"iteration_indptr":[0,1,2,3,4,5,6,7,8,9,10,11,12,13,14,15,16,17,18,19,20,21,22,23,24,25,26,27,28,29,30,31,32,33,34,35,36,37,38,39,40,41,42,43,44,45,46,47,48,49,50,51,52,53,54,55,56,57,58,59,60,61,62,63,64,65,66,67,68,69,70,71,72,73,74,75,76,77,78,79,80,81,82,83,84,85,86,87,88,89,90,91,92,93,94,95,96,97,98,99,100,101,102,103,104,105,106,107,108,109,110,111,112,113,114,115,116,117,118,119,120,121,122,123,124,125,126,127,128,129,130,131,132,133,134,135,136,137,138,139,140,141,142,143,144,145,146,147,148,149,150,151,152,153,154,155,156,157,158,159,160,161,162,163,164,165,166,167,168,169,170,171,172,173,174,175,176,177,178,179,180,181,182,183,184,185,186,187,188,189,190,191,192,193,194,195,196,197,198,199,200,201,202,203,204,205,206,207,208,209,210,211,212,213,214,215,216,217,218,219,220,221,222,223,224,225,226,227,228,229,230,231,232,233,234,235,236,237,238,239,240,241,242,243,244,245,246,247,248,249,250,251,252,253,254,255,256,257,258,259,260,261,262,263,264,265,266,267,268,269,270,271,272,273,274,275,276,277,278,279,280,281,282,283,284,285,286,287,288,289,290,291,292,293,294,295,296,297,298,299,300,301,302,303,304,305,306,307,308,309,310,311,312,313,314,315,316,317,318,319,320,321,322,323,324,325,326,327,328,329,330,331,332,333,334,335,336,337,338,339,340,341,342,343,344,345,346,347,348,349,350,351,352,353,354,355,356,357,358,359,360,361,362,363,364,365,366,367,368,369,370,371,372,373,374,375,376,377,378,379,380,381,382,383,384,385,386,387,388,389,390,391,392,393,394,395,396,397,398,399,400,401,402,403,404,405,406,407,408,409,410,411,412,413,414,415,416,417,418,419,420,421,422,423,424,425,426,427,428,429,430,431,432,433,434,435,436,437,438,439,440,441,442,443,444,445,446,447,448,449,450,451,452,453,454,455,456,457,458,459,460,461,462,463,464,465,466,467,468,469,470,471,472,473,474,475,476,477,478,479,480,481,482,483,484,485,486,487,488,489,490,491,492,493,494,495,496,497,498,499,500,501,502,503,504,505,506,507,508,509,510,511,512,513,514,515,516,517,518,519,520,521,522,523,524,525,526,527,528,529,530,531,532,533,534,535,536,537,538,539,540,541,542,543,544,545,546,547,548,549,550,551,552,553,554,555,556,557,558,559,560,561,562,563,564,565,566,567,568,569,570,571,572,573,574,575,576,577,578,579,580,581,582,583,584,585,586,587,588,589,590,591,592,593,594,595,596,597,598,599,600,601,602,603,604,605,606,607,608,609,610,611,612,613,614,615,616,617,618,619,620,621,622,623,624,625,626,627,628,629,630,631,632,633,634,635,636,637,638,639,640,641,642,643,644,645,646,647,648,649,650,651,652,653,654,655,656,657,658,659,660,661,662,663,664,665,666,667,668,669,670,671,672,673,674,675,676,677,678,679,680,681,682,683,684,685,686,687,688,689,690,691,692,693,694,695,696,697,698,699,700,701,702,703,704,705,706,707,708,709,710,711,712,713,714,715,716,717,718,719,720,721,722,723,724,725,726,727,728,729,730,731,732,733,734,735,736,737,738,739,740,741,742,743,744,745,746,747,748,749,750,751,752,753,754,755,756,757,758,759,760,761,762,763,764,765,766,767,768,769,770,771,772,773,774,775,776,777,778,779,780,781,782,783,784,785,786,787,788,789,790,791,792,793,794,795,796,797,798,799,800,801,802,803,804,805,806,807,808,809,810,811,812,813,814,815,816,817,818,819,820,821,822,823,824,825,826,827,828,829,830,831,832,833,834,835,836,837,838,839,840,841,842,843,844,845,846,847,848,849,850,851,852,853,854,855,856,857,858,859,860,861,862,863,864,865,866,867,868,869,870,871,872,873,874,875,876,877,878,879,880,881,882,883,884,885,886,887,888,889,890,891,892,893,894,895,896,897,898,899,900,901,902,903,904,905,906,907,908,909,910,911,912,913,914,915,916,917,918,919,920,921,922,923,924,925,926,927,928,929,930,931,932,933,934,935,936,937,938,939,940,941,942,943,944,945,946,947,948,949,950,951,952,953,954,955,956,957,958,959,960,961,962,963,964,965,966,967,968,969,970,971,972,973,974,975,976,977,978,979,980,981,982,983,984,985,986,987,988,989,990,991,992,993,994,995,996,997,998,999,1000,1001,1002,1003,1004,1005,1006,1007,1008,1009,1010,1011,1012,1013,1014,1015,1016,1017,1018,1019,1020,1021,1022,1023,1024,1025,1026,1027,1028,1029,1030,1031,1032,1033,1034,1035,1036,1037,1038,1039,1040,1041,1042,1043,1044,1045,1046,1047,1048,1049,1050,1051,1052,1053,1054,1055,1056,1057,1058,1059,1060,1061,1062,1063,1064,1065,1066,1067,1068,1069,1070,1071,1072,1073,1074,1075,1076,1077,1078,1079,1080,1081,1082,1083,1084,1085,1086,1087,1088,1089,1090,1091,1092,1093,1094,1095,1096,1097,1098,1099,1100,1101,1102,1103,1104,1105,1106,1107,1108,1109,1110,1111,1112,1113,1114,1115,1116,1117,1118,1119,1120,1121,1122,1123,1124,1125,1126,1127,1128,1129,1130,1131,1132,1133,1134,1135,1136,1137,1138,1139,1140,1141,1142,1143,1144,1145,1146,1147,1148,1149,1150,1151,1152,1153,1154,1155,1156,1157,1158,1159,1160,1161,1162,1163,1164,1165,1166,1167,1168,1169,1170,1171,1172,1173,1174,1175,1176,1177,1178,1179,1180,1181,1182,1183,1184,1185,1186,1187,1188,1189,1190,1191,1192,1193,1194,1195,1196,1197,1198,1199,1200,1201,1202,1203,1204,1205,1206,1207,1208,1209,1210,1211,1212,1213,1214,1215,1216,1217,1218,1219,1220,1221,1222,1223,1224,1225,1226,1227,1228,1229,1230,1231,1232,1233,1234,1235,1236,1237,1238,1239,1240,1241,1242,1243,1244,1245,1246,1247,1248,1249,1250,1251,1252,1253,1254,1255,1256,1257,1258,1259,1260,1261,1262,1263,1264,1265,1266,1267,1268,1269,1270,1271,1272,1273,1274,1275,1276,1277,1278,1279,1280,1281,1282,1283,1284,1285,1286,1287,1288,1289,1290,1291,1292,1293,1294,1295,1296,1297,1298,1299,1300,1301,1302,1303,1304,1305,1306,1307,1308,1309,1310,1311,1312,1313,1314,1315,1316,1317,1318,1319,1320,1321,1322,1323,1324,1325,1326,1327,1328,1329,1330,1331,1332,1333,1334,1335,1336,1337,1338,1339,1340,1341,1342,1343,1344,1345,1346,1347,1348,1349,1350,1351,1352,1353,1354,1355,1356,1357,1358,1359,1360,1361,1362,1363,1364,1365,1366,1367,1368,1369,1370,1371,1372,1373,1374,1375,1376,1377,1378,1379,1380,1381,1382,1383,1384,1385,1386,1387,1388,1389,1390,1391,1392,1393,1394,1395,1396,1397,1398,1399,1400,1401,1402,1403,1404,1405,1406,1407,1408,1409,1410,1411,1412,1413,1414,1415,1416,1417,1418,1419,1420,1421,1422,1423,1424,1425,1426,1427,1428,1429,1430,1431,1432,1433,1434,1435,1436,1437,1438,1439,1440,1441,1442,1443,1444,1445,1446,1447,1448,1449,1450,1451,1452,1453,1454,1455,1456,1457,1458,1459,1460,1461,1462,1463,1464,1465,1466,1467,1468,1469,1470,1471,1472,1473,1474,1475,1476,1477,1478,1479,1480,1481,1482,1483,1484,1485,1486,1487,1488,1489,1490,1491,1492,1493,1494,1495,1496,1497,1498,1499,1500,1501,1502,1503,1504,1505,1506,1507,1508,1509,1510,1511,1512,1513,1514,1515,1516,1517,1518,1519,1520,1521,1522,1523,1524,1525,1526,1527,1528,1529,1530,1531,1532,1533,1534,1535,1536,1537,1538,1539,1540,1541,1542,1543,1544,1545,1546,1547,1548,1549,1550,1551,1552,1553,1554,1555,1556,1557,1558,1559,1560,1561,1562,1563,1564,1565,1566,1567,1568,1569,1570,1571,1572,1573,1574,1575,1576,1577,1578,1579,1580,1581,1582,1583,1584,1585,1586,1587,1588,1589,1590,1591,1592,1593,1594,1595,1596,1597,1598,1599,1600,1601,1602,1603,1604,1605,1606,1607,1608,1609,1610,1611,1612,1613,1614,1615,1616,1617,1618,1619,1620,1621,1622,1623,1624,1625,1626,1627,1628,1629,1630,1631,1632,1633,1634,1635,1636,1637,1638,1639,1640,1641,1642,1643,1644,1645,1646,1647,1648,1649,1650,1651,1652,1653,1654,1655,1656,1657,1658,1659,1660,1661,1662,1663,1664,1665,1666,1667,1668,1669,1670,1671,1672,1673,1674,1675,1676,1677,1678,1679,1680,1681,1682,1683,1684,1685,1686,1687,1688,1689,1690,1691,1692,1693,1694,1695,1696,1697,1698,1699,1700,1701,1702,1703,1704,1705,1706,1707,1708,1709,1710,1711,1712,1713,1714,1715,1716,1717,1718,1719,1720,1721,1722,1723,1724,1725,1726,1727,1728,1729,1730,1731,1732,1733,1734,1735,1736,1737,1738,1739,1740,1741,1742,1743,1744,1745,1746,1747,1748,1749,1750,1751,1752,1753,1754,1755,1756,1757,1758,1759,1760,1761,1762,1763,1764,1765,1766,1767,1768,1769,1770,1771,1772,1773,1774,1775,1776,1777,1778,1779,1780,1781,1782,1783,1784,1785,1786,1787,1788,1789,1790,1791,1792,1793,1794,1795,1796,1797,1798,1799,1800,1801,1802,1803,1804,1805,1806,1807,1808,1809,1810,1811,1812,1813,1814,1815,1816,1817,1818,1819,1820,1821,1822,1823,1824,1825,1826,1827,1828,1829,1830,1831,1832,1833,1834,1835,1836,1837,1838,1839,1840,1841,1842,1843,1844,1845,1846,1847,1848,1849,1850,1851,1852,1853,1854,1855,1856,1857,1858,1859,1860,1861,1862,1863,1864,1865,1866,1867,1868,1869,1870,1871,1872,1873,1874,1875,1876,1877,1878,1879,1880,1881,1882,1883,1884,1885,1886,1887,1888,1889,1890,1891,1892,1893,1894,1895,1896,1897,1898,1899,1900,1901,1902,1903,1904,1905],"tree_info":[0,0,0,0,0,0,0,0,0,0,0,0,0,0,0,0,0,0,0,0,0,0,0,0,0,0,0,0,0,0,0,0,0,0,0,0,0,0,0,0,0,0,0,0,0,0,0,0,0,0,0,0,0,0,0,0,0,0,0,0,0,0,0,0,0,0,0,0,0,0,0,0,0,0,0,0,0,0,0,0,0,0,0,0,0,0,0,0,0,0,0,0,0,0,0,0,0,0,0,0,0,0,0,0,0,0,0,0,0,0,0,0,0,0,0,0,0,0,0,0,0,0,0,0,0,0,0,0,0,0,0,0,0,0,0,0,0,0,0,0,0,0,0,0,0,0,0,0,0,0,0,0,0,0,0,0,0,0,0,0,0,0,0,0,0,0,0,0,0,0,0,0,0,0,0,0,0,0,0,0,0,0,0,0,0,0,0,0,0,0,0,0,0,0,0,0,0,0,0,0,0,0,0,0,0,0,0,0,0,0,0,0,0,0,0,0,0,0,0,0,0,0,0,0,0,0,0,0,0,0,0,0,0,0,0,0,0,0,0,0,0,0,0,0,0,0,0,0,0,0,0,0,0,0,0,0,0,0,0,0,0,0,0,0,0,0,0,0,0,0,0,0,0,0,0,0,0,0,0,0,0,0,0,0,0,0,0,0,0,0,0,0,0,0,0,0,0,0,0,0,0,0,0,0,0,0,0,0,0,0,0,0,0,0,0,0,0,0,0,0,0,0,0,0,0,0,0,0,0,0,0,0,0,0,0,0,0,0,0,0,0,0,0,0,0,0,0,0,0,0,0,0,0,0,0,0,0,0,0,0,0,0,0,0,0,0,0,0,0,0,0,0,0,0,0,0,0,0,0,0,0,0,0,0,0,0,0,0,0,0,0,0,0,0,0,0,0,0,0,0,0,0,0,0,0,0,0,0,0,0,0,0,0,0,0,0,0,0,0,0,0,0,0,0,0,0,0,0,0,0,0,0,0,0,0,0,0,0,0,0,0,0,0,0,0,0,0,0,0,0,0,0,0,0,0,0,0,0,0,0,0,0,0,0,0,0,0,0,0,0,0,0,0,0,0,0,0,0,0,0,0,0,0,0,0,0,0,0,0,0,0,0,0,0,0,0,0,0,0,0,0,0,0,0,0,0,0,0,0,0,0,0,0,0,0,0,0,0,0,0,0,0,0,0,0,0,0,0,0,0,0,0,0,0,0,0,0,0,0,0,0,0,0,0,0,0,0,0,0,0,0,0,0,0,0,0,0,0,0,0,0,0,0,0,0,0,0,0,0,0,0,0,0,0,0,0,0,0,0,0,0,0,0,0,0,0,0,0,0,0,0,0,0,0,0,0,0,0,0,0,0,0,0,0,0,0,0,0,0,0,0,0,0,0,0,0,0,0,0,0,0,0,0,0,0,0,0,0,0,0,0,0,0,0,0,0,0,0,0,0,0,0,0,0,0,0,0,0,0,0,0,0,0,0,0,0,0,0,0,0,0,0,0,0,0,0,0,0,0,0,0,0,0,0,0,0,0,0,0,0,0,0,0,0,0,0,0,0,0,0,0,0,0,0,0,0,0,0,0,0,0,0,0,0,0,0,0,0,0,0,0,0,0,0,0,0,0,0,0,0,0,0,0,0,0,0,0,0,0,0,0,0,0,0,0,0,0,0,0,0,0,0,0,0,0,0,0,0,0,0,0,0,0,0,0,0,0,0,0,0,0,0,0,0,0,0,0,0,0,0,0,0,0,0,0,0,0,0,0,0,0,0,0,0,0,0,0,0,0,0,0,0,0,0,0,0,0,0,0,0,0,0,0,0,0,0,0,0,0,0,0,0,0,0,0,0,0,0,0,0,0,0,0,0,0,0,0,0,0,0,0,0,0,0,0,0,0,0,0,0,0,0,0,0,0,0,0,0,0,0,0,0,0,0,0,0,0,0,0,0,0,0,0,0,0,0,0,0,0,0,0,0,0,0,0,0,0,0,0,0,0,0,0,0,0,0,0,0,0,0,0,0,0,0,0,0,0,0,0,0,0,0,0,0,0,0,0,0,0,0,0,0,0,0,0,0,0,0,0,0,0,0,0,0,0,0,0,0,0,0,0,0,0,0,0,0,0,0,0,0,0,0,0,0,0,0,0,0,0,0,0,0,0,0,0,0,0,0,0,0,0,0,0,0,0,0,0,0,0,0,0,0,0,0,0,0,0,0,0,0,0,0,0,0,0,0,0,0,0,0,0,0,0,0,0,0,0,0,0,0,0,0,0,0,0,0,0,0,0,0,0,0,0,0,0,0,0,0,0,0,0,0,0,0,0,0,0,0,0,0,0,0,0,0,0,0,0,0,0,0,0,0,0,0,0,0,0,0,0,0,0,0,0,0,0,0,0,0,0,0,0,0,0,0,0,0,0,0,0,0,0,0,0,0,0,0,0,0,0,0,0,0,0,0,0,0,0,0,0,0,0,0,0,0,0,0,0,0,0,0,0,0,0,0,0,0,0,0,0,0,0,0,0,0,0,0,0,0,0,0,0,0,0,0,0,0,0,0,0,0,0,0,0,0,0,0,0,0,0,0,0,0,0,0,0,0,0,0,0,0,0,0,0,0,0,0,0,0,0,0,0,0,0,0,0,0,0,0,0,0,0,0,0,0,0,0,0,0,0,0,0,0,0,0,0,0,0,0,0,0,0,0,0,0,0,0,0,0,0,0,0,0,0,0,0,0,0,0,0,0,0,0,0,0,0,0,0,0,0,0,0,0,0,0,0,0,0,0,0,0,0,0,0,0,0,0,0,0,0,0,0,0,0,0,0,0,0,0,0,0,0,0,0,0,0,0,0,0,0,0,0,0,0,0,0,0,0,0,0,0,0,0,0,0,0,0,0,0,0,0,0,0,0,0,0,0,0,0,0,0,0,0,0,0,0,0,0,0,0,0,0,0,0,0,0,0,0,0,0,0,0,0,0,0,0,0,0,0,0,0,0,0,0,0,0,0,0,0,0,0,0,0,0,0,0,0,0,0,0,0,0,0,0,0,0,0,0,0,0,0,0,0,0,0,0,0,0,0,0,0,0,0,0,0,0,0,0,0,0,0,0,0,0,0,0,0,0,0,0,0,0,0,0,0,0,0,0,0,0,0,0,0,0,0,0,0,0,0,0,0,0,0,0,0,0,0,0,0,0,0,0,0,0,0,0,0,0,0,0,0,0,0,0,0,0,0,0,0,0,0,0,0,0,0,0,0,0,0,0,0,0,0,0,0,0,0,0,0,0,0,0,0,0,0,0,0,0,0,0,0,0,0,0,0,0,0,0,0,0,0,0,0,0,0,0,0,0,0,0,0,0,0,0,0,0,0,0,0,0,0,0,0,0,0,0,0,0,0,0,0,0,0,0,0,0,0,0,0,0,0,0,0,0,0,0,0,0,0,0,0,0,0,0,0,0,0,0,0,0,0,0,0,0,0,0,0,0,0,0,0,0,0,0,0,0,0,0,0,0,0,0,0,0,0,0,0,0,0,0,0,0,0,0,0,0,0,0,0,0,0,0,0,0,0,0,0,0,0,0,0,0,0,0,0,0,0,0,0,0,0,0,0,0,0,0,0,0,0,0,0,0,0,0,0,0,0,0,0,0,0,0,0,0,0,0,0,0,0,0,0,0,0,0,0,0,0,0,0,0,0,0,0,0,0,0,0,0,0,0,0,0,0,0,0,0,0,0,0,0,0,0,0,0,0,0,0,0,0,0,0,0,0,0,0,0,0,0,0,0,0,0,0,0,0,0,0,0,0,0,0,0,0,0,0,0,0,0,0,0,0,0,0,0,0,0,0,0,0,0,0,0,0,0,0,0,0,0,0,0,0,0,0,0,0,0,0,0,0,0,0,0,0,0,0,0,0,0,0,0,0,0,0,0,0,0,0,0,0,0,0,0,0,0,0,0,0,0,0,0,0,0,0,0,0,0,0,0,0,0,0,0,0,0,0,0,0,0,0,0,0,0,0,0,0,0,0,0,0,0,0,0,0,0,0,0,0,0,0,0,0,0,0,0,0,0,0,0,0,0,0,0,0,0,0,0,0,0,0,0,0,0,0,0,0,0,0,0,0,0,0,0,0,0,0,0,0,0,0,0,0,0,0,0,0,0,0,0,0,0,0,0,0,0,0,0,0,0,0,0,0,0,0,0,0,0,0,0,0,0,0,0,0,0,0,0,0,0,0,0,0,0,0,0,0,0,0,0,0,0,0,0,0,0,0,0,0,0,0,0,0,0,0,0,0,0,0,0,0,0,0,0,0,0,0,0],"trees":[{"base_weights":[-1.7147198E-2,1.0408268E0,-3.80477E-1,1.0730641E0,-0E0,6.95655E-1,-7.4352324E-1,7.450574E-4,-0E0,-3.8414924E-5,6.808784E-4,-6.9969153E-4,4.4302648E-4],"categories":[],"categories_nodes":[],"categories_segments":[],"categories_sizes":[],"default_left":[0,0,0,0,0,0,0,0,0,0,0,0,0],"id":0,"left_children":[1,3,5,7,-1,9,11,-1,-1,-1,-1,-1,-1],"loss_changes":[7.024631E2,2.2778107E1,5.3809155E2,1.1043152E1,0E0,8.457849E1,4.077489E2,0E0,0E0,0E0,0E0,0E0,0E0],"parents":[2147483647,0,0,1,1,2,2,3,3,5,5,6,6],"right_children":[2,4,6,8,-1,10,12,-1,-1,-1,-1,-1,-1],"split_conditions":[3E0,1.056E1,2.1E2,8.9E-1,-0E0,6.666667E-1,2E0,7.450574E-4,-0E0,-3.8414924E-5,6.808784E-4,-6.9969153E-4,4.4302648E-4],"split_indices":[10,28,7,12,0,27,8,0,0,0,0,0,0],"split_type":[0,0,0,0,0,0,0,0,0,0,0,0,0],"sum_hessian":[1.8382487E3,4.6418652E2,1.3740621E3,4.564376E2,7.7489405E0,3.4120334E2,1.0328588E3,4.5093835E2,5.499248E0,9.0737595E1,2.5046576E2,8.6413184E2,1.6872693E2],"tree_param":{"num_deleted":"0","num_feature":"32","num_nodes":"13","size_leaf_vector":"1"}},{"base_weights":[1.2999324E-2,1.1672722E0,-2.1747857E-1,1.1900843E0,-0E0,8.27316E-1,-3.523216E-1,8.443702E-4,-0E0,-2.5535285E-4,6.2046334E-4,3.6212317E-5,-3.5814196E-4],"categories":[],"categories_nodes":[],"categories_segments":[],"categories_sizes":[],"default_left":[0,0,0,0,0,0,0,0,0,0,0,0,0],"id":1,"left_children":[1,3,5,7,-1,9,11,-1,-1,-1,-1,-1,-1],"loss_changes":[5.05091E2,1.3858398E1,2.1582567E2,1.1553925E1,0E0,2.1057503E1,1.0007463E2,0E0,0E0,0E0,0E0,0E0,0E0],"parents":[2147483647,0,0,1,1,2,2,3,3,5,5,6,6],"right_children":[2,4,6,8,-1,10,12,-1,-1,-1,-1,-1,-1],"split_conditions":[6E0,2E0,1.1E2,1.75E3,-0E0,1.6E2,9.927556E-2,8.443702E-4,-0E0,-2.5535285E-4,6.2046334E-4,3.6212317E-5,-3.5814196E-4],"split_indices":[1,11,30,30,0,7,23,0,0,0,0,0,0],"split_type":[0,0,0,0,0,0,0,0,0,0,0,0,0],"sum_hessian":[1.8699944E3,3.159547E2,1.5540397E3,3.1370502E2,2.2496867E0,1.7072697E2,1.3833126E3,2.9820718E2,1.5497854E1,4.749335E0,1.6597765E2,3.9944577E2,9.838669E2],"tree_param":{"num_deleted":"0","num_feature":"32","num_nodes":"13","size_leaf_vector":"1"}},{"base_weights":[-0E0,1.2517272E0,-2.5684556E-1,1.2866516E0,-0E0,9.0015393E-1,-6.9447607E-1,-0E0,8.9788286E-4,6.637131E-4,-0E0,-6.935501E-4,5.1919534E-4],"categories":[],"categories_nodes":[],"categories_segments":[],"categories_sizes":[],"default_left":[0,0,0,0,0,0,0,0,0,0,0,0,0],"id":2,"left_children":[1,3,5,7,-1,9,11,-1,-1,-1,-1,-1,-1],"loss_changes":[5.9348254E2,1.3371338E1,7.7570935E2,1.3120575E1,0E0,2.0900665E1,5.2466754E2,0E0,0E0,0E0,0E0,0E0,0E0],"parents":[2147483647,0,0,1,1,2,2,3,3,5,5,6,6],"right_children":[2,4,6,8,-1,10,12,-1,-1,-1,-1,-1,-1],"split_conditions":[6E0,4.016563E1,3E0,2.2222223E0,-0E0,8.1E-1,2E0,-0E0,8.9788286E-4,6.637131E-4,-0E0,-6.935501E-4,5.1919534E-4],"split_indices":[1,9,10,29,0,12,8,0,0,0,0,0,0],"split_type":[0,0,0,0,0,0,0,0,0,0,0,0,0],"sum_hessian":[1.8459974E3,3.1320215E2,1.5327953E3,3.044535E2,8.748656E0,4.1569043E2,1.1171049E3,5.2491856E0,2.992043E2,3.7869565E2,3.6994785E1,9.1963245E2,1.9747241E2],"tree_param":{"num_deleted":"0","num_feature":"32","num_nodes":"13","size_leaf_vector":"1"}},{"base_weights":[1.8132132E-2,1.0051036E0,-3.3981892E-1,1.0348604E0,-0E0,1.121266E0,-6.6618556E-1,7.845547E-4,4.2884788E-4,-0E0,7.9032214E-4,-6.565483E-4,4.9696607E-4],"categories":[],"categories_nodes":[],"categories_segments":[],"categories_sizes":[],"default_left":[0,0,0,0,0,0,0,0,0,0,0,0,0],"id":3,"left_children":[1,3,5,7,-1,9,11,-1,-1,-1,-1,-1,-1],"loss_changes":[6.615365E2,1.8851044E1,6.450656E2,8.688171E0,0E0,1.6258392E1,4.6103467E2,0E0,0E0,0E0,0E0,0E0,0E0],"parents":[2147483647,0,0,1,1,2,2,3,3,5,5,6,6],"right_children":[2,4,6,8,-1,10,12,-1,-1,-1,-1,-1,-1],"split_conditions":[3E0,7.56E2,6E0,2.5E1,-0E0,4E-2,2E0,7.845547E-4,4.2884788E-4,-0E0,7.9032214E-4,-6.565483E-4,4.9696607E-4],"split_indices":[10,29,1,2,0,13,8,0,0,0,0,0,0],"split_type":[0,0,0,0,0,0,0,0,0,0,0,0,0],"sum_hessian":[1.8564957E3,4.9917407E2,1.3573217E3,4.8842566E2,1.0748423E1,2.4321031E2,1.1141113E3,3.6594412E2,1.22481544E2,2.7495513E0,2.4046077E2,9.2413904E2,1.8997234E2],"tree_param":{"num_deleted":"0","num_feature":"32","num_nodes":"13","size_leaf_vector":"1"}},{"base_weights":[-0E0,1.0321109E0,-4.0020674E-1,1.0542846E0,-0E0,1.081858E0,-7.36424E-1,7.264505E-4,-0E0,-0E0,7.805216E-4,-7.521145E-4,5.411357E-4],"categories":[],"categories_nodes":[],"categories_segments":[],"categories_sizes":[],"default_left":[0,0,0,0,0,0,0,0,0,0,0,0,0],"id":4,"left_children":[1,3,5,7,-1,9,11,-1,-1,-1,-1,-1,-1],"loss_changes":[7.528811E2,1.2916992E1,6.588733E2,8.115234E0,0E0,1.1819916E1,6.0835315E2,0E0,0E0,0E0,0E0,0E0,0E0],"parents":[2147483647,0,0,1,1,2,2,3,3,5,5,6,6],"right_children":[2,4,6,8,-1,10,12,-1,-1,-1,-1,-1,-1],"split_conditions":[3E0,3.9E1,6E0,4.541926E1,-0E0,4E0,2E0,7.264505E-4,-0E0,-0E0,7.805216E-4,-7.521145E-4,5.411357E-4],"split_indices":[10,2,1,9,0,29,8,0,0,0,0,0,0],"split_type":[0,0,0,0,0,0,0,0,0,0,0,0,0],"sum_hessian":[1.8312467E3,5.0641876E2,1.324828E3,4.9692026E2,9.498519E0,2.4045854E2,1.0843694E3,4.954205E2,1.4997623E0,1.5997203E1,2.2446133E2,8.796506E2,2.0471883E2],"tree_param":{"num_deleted":"0","num_feature":"32","num_nodes":"13","size_leaf_vector":"1"}},{"base_weights":[3.2322487E-4,1.0036659E0,-3.4381503E-1,1.6664017E-2,1.0673466E0,-6.346642E-1,1.0010122E0,6.5579E-4,-1.28079E-4,1.19956756E-4,7.792873E-4,4.37914E-4,-5.445006E-4,7.529596E-4,-0E0],"categories":[],"categories_nodes":[],"categories_segments":[],"categories_sizes":[],"default_left":[0,0,0,0,0,0,0,0,0,0,0,0,0,0,0],"id":5,"left_children":[1,3,5,7,9,11,13,-1,-1,-1,-1,-1,-1,-1,-1],"loss_changes":[6.4154865E2,2.183667E1,5.3271985E2,1.3072647E1,1.8879486E1,2.3586417E2,2.757042E1,0E0,0E0,0E0,0E0,0E0,0E0,0E0,0E0],"parents":[2147483647,0,0,1,1,2,2,3,3,4,4,5,5,6,6],"right_children":[2,4,6,8,10,12,14,-1,-1,-1,-1,-1,-1,-1,-1],"split_conditions":[3E0,6.666667E-2,1E0,9.4085366E-2,7.9353676E0,1.1E2,1.0855272E-1,6.5579E-4,-1.28079E-4,1.19956756E-4,7.792873E-4,4.37914E-4,-5.445006E-4,7.529596E-4,-0E0],"split_indices":[10,27,27,16,4,30,19,0,0,0,0,0,0,0,0],"split_type":[0,0,0,0,0,0,0,0,0,0,0,0,0,0,0],"sum_hessian":[1.841746E3,4.754195E2,1.3663264E3,3.599411E1,4.3942535E2,1.1283688E3,2.3795767E2,1.2247946E1,2.3746166E1,4.1493046E1,3.979323E2,1.2198512E2,1.00638367E3,2.1871106E2,1.9246607E1],"tree_param":{"num_deleted":"0","num_feature":"32","num_nodes":"15","size_leaf_vector":"1"}},{"base_weights":[2.7412096E-2,1.0463545E0,-3.4888208E-1,1.0803887E0,-3.8653714E-4,1.0438927E0,-6.750732E-1,-0E0,7.5462105E-4,7.743152E-4,-0E0,5.4608256E-4,-6.240305E-4],"categories":[],"categories_nodes":[],"categories_segments":[],"categories_sizes":[],"default_left":[0,0,0,0,0,0,0,0,0,0,0,0,0],"id":6,"left_children":[1,3,5,7,-1,9,11,-1,-1,-1,-1,-1,-1],"loss_changes":[7.111599E2,3.1992004E1,6.06425E2,1.827887E1,0E0,2.5140076E1,3.8507108E2,0E0,0E0,0E0,0E0,0E0,0E0],"parents":[2147483647,0,0,1,1,2,2,3,3,5,5,6,6],"right_children":[2,4,6,8,-1,10,12,-1,-1,-1,-1,-1,-1],"split_conditions":[3E0,3.9E1,6E0,-5.1E1,-3.8653714E-4,1.1411196E-1,5E0,-0E0,7.5462105E-4,7.743152E-4,-0E0,5.4608256E-4,-6.240305E-4],"split_indices":[10,2,1,14,0,19,2,0,0,0,0,0,0],"split_type":[0,0,0,0,0,0,0,0,0,0,0,0,0],"sum_hessian":[1.8392426E3,5.0091086E2,1.3383317E3,4.9541177E2,5.4990964E0,2.4920287E2,1.0891288E3,6.7488217E0,4.8866293E2,2.3070615E2,1.8496716E1,1.4698221E2,9.421466E2],"tree_param":{"num_deleted":"0","num_feature":"32","num_nodes":"13","size_leaf_vector":"1"}},{"base_weights":[3.0646943E-2,1.0444739E0,-3.2421133E-1,1.0808437E0,-5.4665128E-5,1.1072838E0,-6.62738E-1,7.599805E-4,-0E0,-0E0,7.819182E-4,5.756985E-4,-5.96007E-4],"categories":[],"categories_nodes":[],"categories_segments":[],"categories_sizes":[],"default_left":[0,0,0,0,0,0,0,0,0,0,0,0,0],"id":7,"left_children":[1,3,5,7,-1,9,11,-1,-1,-1,-1,-1,-1],"loss_changes":[6.620129E2,2.7131897E1,6.499696E2,1.983606E1,0E0,1.7503296E1,3.4660596E2,0E0,0E0,0E0,0E0,0E0,0E0],"parents":[2147483647,0,0,1,1,2,2,3,3,5,5,6,6],"right_children":[2,4,6,8,-1,10,12,-1,-1,-1,-1,-1,-1],"split_conditions":[3E0,2.32E2,6E0,2.722238E1,-5.4665128E-5,-4.8E1,1.1E2,7.599805E-4,-0E0,-0E0,7.819182E-4,5.756985E-4,-5.96007E-4],"split_indices":[10,26,1,4,0,14,30,0,0,0,0,0,0],"split_type":[0,0,0,0,0,0,0,0,0,0,0,0,0],"sum_hessian":[1.8232439E3,4.7766028E2,1.3455836E3,4.6916174E2,8.498533E0,2.5269981E2,1.0928838E3,4.586637E2,1.0498033E1,2.9994144E0,2.497004E2,1.289827E2,9.639011E2],"tree_param":{"num_deleted":"0","num_feature":"32","num_nodes":"13","size_leaf_vector":"1"}},{"base_weights":[-5.9598263E-2,9.7024804E-1,-4.5388314E-1,9.8725754E-1,-0E0,-8.165025E-1,7.3345345E-1,6.908404E-4,-0E0,5.753926E-4,-7.572518E-4,6.5447163E-4,-0E0],"categories":[],"categories_nodes":[],"categories_segments":[],"categories_sizes":[],"default_left":[0,0,0,0,0,0,0,0,0,0,0,0,0],"id":8,"left_children":[1,3,5,7,-1,9,11,-1,-1,-1,-1,-1,-1],"loss_changes":[7.1865E2,1.354892E1,5.574241E2,1.0395905E1,0E0,4.8515918E2,4.8329605E1,0E0,0E0,0E0,0E0,0E0,0E0],"parents":[2147483647,0,0,1,1,2,2,3,3,5,5,6,6],"right_children":[2,4,6,8,-1,10,12,-1,-1,-1,-1,-1,-1],"split_conditions":[3E0,3.9E1,6E-1,3.8E1,-0E0,5E0,2.8333334E1,6.908404E-4,-0E0,5.753926E-4,-7.572518E-4,6.5447163E-4,-0E0],"split_indices":[10,5,27,2,0,2,29,0,0,0,0,0,0],"split_type":[0,0,0,0,0,0,0,0,0,0,0,0,0],"sum_hessian":[1.7772494E3,4.864044E2,1.2908451E3,4.8365494E2,2.749473E0,9.939001E2,2.9694495E2,4.709071E2,1.274783E1,1.4473135E2,8.4916876E2,2.2620523E2,7.07397E1],"tree_param":{"num_deleted":"0","num_feature":"32","num_nodes":"13","size_leaf_vector":"1"}},{"base_weights":[4.664893E-3,1.1790781E0,-2.2531207E-1,-0E0,1.2125263E0,8.063068E-1,-4.175071E-1,8.463591E-4,-0E0,6.8648177E-4,-0E0,-4.4031205E-4,5.2992936E-4],"categories":[],"categories_nodes":[],"categories_segments":[],"categories_sizes":[],"default_left":[0,0,0,0,0,0,0,0,0,0,0,0,0],"id":9,"left_children":[1,3,5,-1,7,9,11,-1,-1,-1,-1,-1,-1],"loss_changes":[5.136603E2,1.6173706E1,3.0734515E2,0E0,1.1939209E1,4.3379517E1,3.5851495E2,0E0,0E0,0E0,0E0,0E0,0E0],"parents":[2147483647,0,0,1,1,2,2,4,4,5,5,6,6],"right_children":[2,4,6,-1,8,10,12,-1,-1,-1,-1,-1,-1],"split_conditions":[6E0,4E-2,7E0,-0E0,1.4555373E2,1.5E2,2E0,8.463591E-4,-0E0,6.8648177E-4,-0E0,-4.4031205E-4,5.2992936E-4],"split_indices":[1,13,2,0,25,30,8,0,0,0,0,0,0],"split_type":[0,0,0,0,0,0,0,0,0,0,0,0,0],"sum_hessian":[1.8734878E3,3.1143262E2,1.5620552E3,5.9986963E0,3.0543393E2,2.3871455E2,1.3233407E3,3.0018506E2,5.248883E0,1.962199E2,4.2494648E1,1.1173708E3,2.0596986E2],"tree_param":{"num_deleted":"0","num_feature":"32","num_nodes":"13","size_leaf_vector":"1"}},{"base_weights":[3.7812423E-2,1.0987966E0,-3.4247446E-1,1.1514806E0,-0E0,1.0946262E0,-6.9466734E-1,-2.0633845E-4,8.0730784E-4,1.3360292E-4,-5.4829725E-4,7.619317E-4,-0E0,-6.920021E-4,5.344502E-4],"categories":[],"categories_nodes":[],"categories_segments":[],"categories_sizes":[],"default_left":[0,0,0,0,0,0,0,0,0,0,0,0,0,0,0],"id":10,"left_children":[1,3,5,7,9,11,13,-1,-1,-1,-1,-1,-1,-1,-1],"loss_changes":[7.518441E2,3.261389E1,6.84267E2,2.791632E1,5.5194497E0,9.986328E0,5.1725793E2,0E0,0E0,0E0,0E0,0E0,0E0,0E0,0E0],"parents":[2147483647,0,0,1,1,2,2,3,3,4,4,5,5,6,6],"right_children":[2,4,6,8,10,12,14,-1,-1,-1,-1,-1,-1,-1,-1],"split_conditions":[3E0,1.95E2,6E0,-5.2E1,1.0152271E-1,1.17E0,2E0,-2.0633845E-4,8.0730784E-4,1.3360292E-4,-5.4829725E-4,7.619317E-4,-0E0,-6.920021E-4,5.344502E-4],"split_indices":[10,26,1,14,17,28,8,0,0,0,0,0,0,0,0],"split_type":[0,0,0,0,0,0,0,0,0,0,0,0,0,0,0],"sum_hessian":[1.8474843E3,4.9214786E2,1.3553364E3,4.726515E2,1.9496378E1,2.6218976E2,1.0931466E3,4.4991407E0,4.6815234E2,1.2747625E1,6.748753E0,2.6044012E2,1.7496171E0,9.036734E2,1.8947324E2],"tree_param":{"num_deleted":"0","num_feature":"32","num_nodes":"15","size_leaf_vector":"1"}},{"base_weights":[3.985723E-2,1.0333065E0,-3.110146E-1,1.1385553E0,2.9548228E-1,1.108642E0,-6.641466E-1,-0E0,8.0422405E-4,-1.9852215E-4,4.614045E-4,7.87018E-4,-0E0,6.2412757E-4,-6.391359E-4],"categories":[],"categories_nodes":[],"categories_segments":[],"categories_sizes":[],"default_left":[0,0,0,0,0,0,0,0,0,0,0,0,0,0,0],"id":11,"left_children":[1,3,5,7,9,11,13,-1,-1,-1,-1,-1,-1,-1,-1],"loss_changes":[6.5091406E2,2.6926514E1,6.807697E2,1.9006958E1,1.8937553E1,1.7773102E1,4.709077E2,0E0,0E0,0E0,0E0,0E0,0E0,0E0,0E0],"parents":[2147483647,0,0,1,1,2,2,3,3,4,4,5,5,6,6],"right_children":[2,4,6,8,10,12,14,-1,-1,-1,-1,-1,-1,-1,-1],"split_conditions":[3E0,2.8E1,6E0,5.4021916E0,4.5E-1,2.03E3,5E0,-0E0,8.0422405E-4,-1.9852215E-4,4.614045E-4,7.87018E-4,-0E0,6.2412757E-4,-6.391359E-4],"split_indices":[10,2,1,4,12,30,2,0,0,0,0,0,0,0,0],"split_type":[0,0,0,0,0,0,0,0,0,0,0,0,0,0,0],"sum_hessian":[1.84998E3,4.8789417E2,1.3620858E3,4.1765826E2,7.023591E1,2.6668582E2,1.0953999E3,1.3497117E1,4.0416116E2,1.9995996E1,5.0239914E1,2.601872E2,6.498621E0,1.5647856E2,9.389214E2],"tree_param":{"num_deleted":"0","num_feature":"32","num_nodes":"15","size_leaf_vector":"1"}},{"base_weights":[-6.281014E-2,1.1420958E0,-3.1022424E-1,-0E0,1.2336819E0,8.178616E-1,-7.2608864E-1,8.5274567E-4,-0E0,-8.9687856E-5,5.864095E-4,5.26655E-4,-6.492572E-4],"categories":[],"categories_nodes":[],"categories_segments":[],"categories_sizes":[],"default_left":[0,0,0,0,0,0,0,0,0,0,0,0,0],"id":12,"left_children":[1,3,5,-1,7,9,11,-1,-1,-1,-1,-1,-1],"loss_changes":[5.3066815E2,2.7601318E1,7.031669E2,0E0,8.226318E0,2.0967987E1,3.7198718E2,0E0,0E0,0E0,0E0,0E0,0E0],"parents":[2147483647,0,0,1,1,2,2,4,4,5,5,6,6],"right_children":[2,4,6,-1,8,10,12,-1,-1,-1,-1,-1,-1],"split_conditions":[6E0,3E1,3E0,-0E0,1.4761961E2,-5.1E1,5E0,8.5274567E-4,-0E0,-8.9687856E-5,5.864095E-4,5.26655E-4,-6.492572E-4],"split_indices":[1,7,10,0,25,14,2,0,0,0,0,0,0],"split_type":[0,0,0,0,0,0,0,0,0,0,0,0,0],"sum_hessian":[1.798741E3,3.0067493E2,1.498066E3,2.4993677E1,2.7568124E2,3.9841138E2,1.0996547E3,2.7443155E2,1.2496998E0,8.74831E0,3.896631E2,1.387302E2,9.6092444E2],"tree_param":{"num_deleted":"0","num_feature":"32","num_nodes":"13","size_leaf_vector":"1"}},{"base_weights":[-0E0,1.1386881E0,-2.2451441E-1,1.1722287E0,-0E0,1.0366697E0,-4.186493E-1,8.113879E-4,-0E0,7.370739E-4,-0E0,-4.3287073E-4,4.9562263E-4],"categories":[],"categories_nodes":[],"categories_segments":[],"categories_sizes":[],"default_left":[0,0,0,0,0,0,0,0,0,0,0,0,0],"id":13,"left_children":[1,3,5,7,-1,9,11,-1,-1,-1,-1,-1,-1],"loss_changes":[4.8025922E2,1.9595612E1,3.735628E2,9.277618E0,0E0,1.4857727E1,3.3031546E2,0E0,0E0,0E0,0E0,0E0,0E0],"parents":[2147483647,0,0,1,1,2,2,3,3,5,5,6,6],"right_children":[2,4,6,8,-1,10,12,-1,-1,-1,-1,-1,-1],"split_conditions":[6E0,8.8E-1,5E0,1.6250298E2,-0E0,1E2,2E0,8.113879E-4,-0E0,7.370739E-4,-0E0,-4.3287073E-4,4.9562263E-4],"split_indices":[1,12,2,25,0,6,8,0,0,0,0,0,0],"split_type":[0,0,0,0,0,0,0,0,0,0,0,0,0],"sum_hessian":[1.8512269E3,3.09418E2,1.541809E3,3.0616882E2,3.2491848E0,1.9996536E2,1.3418436E3,3.046692E2,1.4996452E0,1.972158E2,2.7495582E0,1.1353744E3,2.0646924E2],"tree_param":{"num_deleted":"0","num_feature":"32","num_nodes":"13","size_leaf_vector":"1"}},{"base_weights":[-1.059113E-2,1.0000037E0,-3.655676E-1,1.0329638E0,-3.0509333E-4,1.0815756E0,-7.3076695E-1,7.2197383E-4,-0E0,7.792203E-4,-0E0,-7.029656E-4,4.634471E-4],"categories":[],"categories_nodes":[],"categories_segments":[],"categories_sizes":[],"default_left":[0,0,0,0,0,0,0,0,0,0,0,0,0],"id":14,"left_children":[1,3,5,7,-1,9,11,-1,-1,-1,-1,-1,-1],"loss_changes":[6.436821E2,2.6980377E1,7.079881E2,1.5850433E1,0E0,1.7595917E1,4.5635565E2,0E0,0E0,0E0,0E0,0E0,0E0],"parents":[2147483647,0,0,1,1,2,2,3,3,5,5,6,6],"right_children":[2,4,6,8,-1,10,12,-1,-1,-1,-1,-1,-1],"split_conditions":[3E0,7.56E2,6E0,2.8226593E1,-3.0509333E-4,1.65E3,2E0,7.2197383E-4,-0E0,7.792203E-4,-0E0,-7.029656E-4,4.634471E-4],"split_indices":[10,29,1,4,0,30,8,0,0,0,0,0,0],"split_type":[0,0,0,0,0,0,0,0,0,0,0,0,0],"sum_hessian":[1.8054786E3,4.6339172E2,1.3420869E3,4.5839273E2,4.99898E0,2.659265E2,1.0761604E3,4.518941E2,6.498624E0,2.5242986E2,1.3496663E1,8.9268665E2,1.8347375E2],"tree_param":{"num_deleted":"0","num_feature":"32","num_nodes":"13","size_leaf_vector":"1"}},{"base_weights":[2.1843078E-2,9.9709857E-1,-3.2280555E-1,1.0368981E0,-5.2038394E-4,1.1964177E0,-7.100386E-1,7.188737E-4,-0E0,8.3292456E-4,-0E0,-7.1513583E-4,5.6956004E-4],"categories":[],"categories_nodes":[],"categories_segments":[],"categories_sizes":[],"default_left":[0,0,0,0,0,0,0,0,0,0,0,0,0],"id":15,"left_children":[1,3,5,7,-1,9,11,-1,-1,-1,-1,-1,-1],"loss_changes":[6.4186896E2,3.7872314E1,8.174964E2,1.3326721E1,0E0,8.517914E0,5.8292004E2,0E0,0E0,0E0,0E0,0E0,0E0],"parents":[2147483647,0,0,1,1,2,2,3,3,5,5,6,6],"right_children":[2,4,6,8,-1,10,12,-1,-1,-1,-1,-1,-1],"split_conditions":[3E0,2.31E2,6E0,4.5E3,-5.2038394E-4,2.32E2,2E0,7.188737E-4,-0E0,8.3292456E-4,-0E0,-7.1513583E-4,5.6956004E-4],"split_indices":[10,26,1,7,0,26,8,0,0,0,0,0,0],"split_type":[0,0,0,0,0,0,0,0,0,0,0,0,0],"sum_hessian":[1.8927101E3,4.9937753E2,1.3933325E3,4.9287875E2,6.498802E0,2.7867004E2,1.1146626E3,4.9037927E2,2.4994702E0,2.7392136E2,4.7486844E0,9.1919104E2,1.954715E2],"tree_param":{"num_deleted":"0","num_feature":"32","num_nodes":"13","size_leaf_vector":"1"}},{"base_weights":[2.386454E-2,1.2019571E0,-2.0448531E-1,8.29991E-4,-0E0,1.0410461E0,-3.9170897E-1,7.65705E-4,-0E0,-3.2745712E-4,1.7577891E-4],"categories":[],"categories_nodes":[],"categories_segments":[],"categories_sizes":[],"default_left":[0,0,0,0,0,0,0,0,0,0,0],"id":16,"left_children":[1,3,5,-1,-1,7,9,-1,-1,-1,-1],"loss_changes":[5.0717746E2,7.9651184E0,3.5719852E2,0E0,0E0,2.069661E1,7.887526E1,0E0,0E0,0E0,0E0],"parents":[2147483647,0,0,1,1,2,2,5,5,6,6],"right_children":[2,4,6,-1,-1,8,10,-1,-1,-1,-1],"split_conditions":[6E0,4E1,5E0,8.29991E-4,-0E0,6.94388E1,2.5E1,7.65705E-4,-0E0,-3.2745712E-4,1.7577891E-4],"split_indices":[1,2,2,0,0,31,5,0,0,0,0],"split_type":[0,0,0,0,0,0,0,0,0,0,0],"sum_hessian":[1.8557118E3,3.0590723E2,1.5498046E3,3.0465756E2,1.2496768E0,1.967142E2,1.3530905E3,1.8596596E2,1.074824E1,1.2023574E3,1.5073302E2],"tree_param":{"num_deleted":"0","num_feature":"32","num_nodes":"11","size_leaf_vector":"1"}},{"base_weights":[-5.7291135E-2,1.1417546E0,-3.0228564E-1,-0E0,1.1627747E0,-5.663262E-1,9.0047026E-1,-0E0,8.069162E-4,3.37248E-4,-4.9890566E-4,6.4906594E-4,-2.0472563E-4],"categories":[],"categories_nodes":[],"categories_segments":[],"categories_sizes":[],"default_left":[0,0,0,0,0,0,0,0,0,0,0,0,0],"id":17,"left_children":[1,3,5,-1,7,9,11,-1,-1,-1,-1,-1,-1],"loss_changes":[5.2930035E2,1.2030334E1,4.8035486E2,0E0,1.0749298E1,2.1979266E2,2.1207016E1,0E0,0E0,0E0,0E0,0E0,0E0],"parents":[2147483647,0,0,1,1,2,2,4,4,5,5,6,6],"right_children":[2,4,6,-1,8,10,12,-1,-1,-1,-1,-1,-1],"split_conditions":[6E0,2.2222223E0,2E0,-0E0,-5.7E1,1.4E1,1.0731023E-1,-0E0,8.069162E-4,3.37248E-4,-4.9890566E-4,6.4906594E-4,-2.0472563E-4],"split_indices":[1,29,8,0,14,26,20,0,0,0,0,0,0],"split_type":[0,0,0,0,0,0,0,0,0,0,0,0,0],"sum_hessian":[1.820966E3,3.0315424E2,1.5178118E3,1.9994137E0,3.0115485E2,1.2501096E3,2.6770206E2,1.7494792E0,2.9940536E2,1.6122409E2,1.0888856E3,2.6320276E2,4.499303E0],"tree_param":{"num_deleted":"0","num_feature":"32","num_nodes":"13","size_leaf_vector":"1"}},{"base_weights":[-0E0,1.1355476E0,-2.1679483E-1,1.1625301E0,-0E0,-4.7514802E-1,1.0235927E0,-0E0,8.1057125E-4,6.150707E-4,-4.3932933E-4,7.237575E-4,-0E0],"categories":[],"categories_nodes":[],"categories_segments":[],"categories_sizes":[],"default_left":[0,0,0,0,0,0,0,0,0,0,0,0,0],"id":18,"left_children":[1,3,5,7,-1,9,11,-1,-1,-1,-1,-1,-1],"loss_changes":[4.550489E2,1.4985992E1,4.9528564E2,9.668732E0,0E0,2.9786746E2,1.3069977E1,0E0,0E0,0E0,0E0,0E0,0E0],"parents":[2147483647,0,0,1,1,2,2,3,3,5,5,6,6],"right_children":[2,4,6,8,-1,10,12,-1,-1,-1,-1,-1,-1],"split_conditions":[6E0,3.1E2,2E0,2.677331E0,-0E0,4E0,2.24E3,-0E0,8.1057125E-4,6.150707E-4,-4.3932933E-4,7.237575E-4,-0E0],"split_indices":[1,7,8,4,0,2,30,0,0,0,0,0,0],"split_type":[0,0,0,0,0,0,0,0,0,0,0,0,0],"sum_hessian":[1.8509619E3,2.9515213E2,1.5558098E3,2.9265286E2,2.4992692E0,1.2931091E3,2.6270068E2,4.9983735E0,2.8765448E2,1.3547461E2,1.1576345E3,2.5670163E2,5.9990506E0],"tree_param":{"num_deleted":"0","num_feature":"32","num_nodes":"13","size_leaf_vector":"1"}},{"base_weights":[2.913315E-2,1.0376457E0,-3.4546295E-1,-0E0,1.0950215E0,-6.576289E-1,7.387485E-1,-6.0026714E-4,3.0490788E-4,8.1454223E-4,3.402566E-4,-6.6109985E-4,5.183899E-4,1.343884E-4,6.6014344E-4],"categories":[],"categories_nodes":[],"categories_segments":[],"categories_sizes":[],"default_left":[0,0,0,0,0,0,0,0,0,0,0,0,0,0,0],"id":19,"left_children":[1,3,5,7,9,11,13,-1,-1,-1,-1,-1,-1,-1,-1],"loss_changes":[7.0676874E2,2.684137E1,4.5639667E2,1.1003221E1,1.4667603E1,4.6520618E2,2.7749832E1,0E0,0E0,0E0,0E0,0E0,0E0,0E0,0E0],"parents":[2147483647,0,0,1,1,2,2,3,3,4,4,5,5,6,6],"right_children":[2,4,6,8,10,12,14,-1,-1,-1,-1,-1,-1,-1,-1],"split_conditions":[3E0,6.451613E-2,6.666667E-1,1.0380826E-1,1.4E2,2E0,1.2E0,-6.0026714E-4,3.0490788E-4,8.1454223E-4,3.402566E-4,-6.6109985E-4,5.183899E-4,1.343884E-4,6.6014344E-4],"split_indices":[10,27,27,22,26,8,27,0,0,0,0,0,0,0,0],"split_type":[0,0,0,0,0,0,0,0,0,0,0,0,0,0,0],"sum_hessian":[1.8552007E3,5.073722E2,1.3478285E3,2.9493525E1,4.7787866E2,1.0521659E3,2.9566266E2,7.248443E0,2.224508E1,3.991458E2,7.8732864E1,8.676971E2,1.844688E2,9.7729996E1,1.9793265E2],"tree_param":{"num_deleted":"0","num_feature":"32","num_nodes":"15","size_leaf_vector":"1"}},{"base_weights":[1.907161E-2,-1.9204482E-1,1.1040622E0,8.205239E-1,-3.7917104E-1,1.1793592E0,-0E0,6.875383E-4,1.2109047E-4,-4.1584842E-4,5.249892E-4,8.3078974E-4,-0E0,-3.7933534E-4,6.1091175E-4],"categories":[],"categories_nodes":[],"categories_segments":[],"categories_sizes":[],"default_left":[0,0,0,0,0,0,0,0,0,0,0,0,0,0,0],"id":20,"left_children":[1,3,5,7,9,11,13,-1,-1,-1,-1,-1,-1,-1,-1],"loss_changes":[4.3133994E2,2.8991446E2,1.9524261E1,1.9141068E1,3.4503232E2,1.6263092E1,1.4651056E1,0E0,0E0,0E0,0E0,0E0,0E0,0E0,0E0],"parents":[2147483647,0,0,1,1,2,2,3,3,4,4,5,5,6,6],"right_children":[2,4,6,8,10,12,14,-1,-1,-1,-1,-1,-1,-1,-1],"split_conditions":[1E0,7E0,1.1411196E-1,5E0,2E0,3.6E1,1.7E1,6.875383E-4,1.2109047E-4,-4.1584842E-4,5.249892E-4,8.3078974E-4,-0E0,-3.7933534E-4,6.1091175E-4],"split_indices":[27,2,19,2,8,2,5,0,0,0,0,0,0,0,0],"split_type":[0,0,0,0,0,0,0,0,0,0,0,0,0,0,0],"sum_hessian":[1.8514524E3,1.5448094E3,3.066429E2,2.3420786E2,1.3106017E3,2.826509E2,2.3992018E1,1.7221681E2,6.199104E1,1.0978915E3,2.1271017E2,2.7665256E2,5.99833E0,1.1496395E1,1.2495622E1],"tree_param":{"num_deleted":"0","num_feature":"32","num_nodes":"15","size_leaf_vector":"1"}},{"base_weights":[1.2031891E-2,1.0015249E0,-2.9698732E-1,1.0524526E0,-0E0,1.0580295E0,-6.08933E-1,7.3943706E-4,-0E0,8.1346557E-4,1.2112821E-4,-6.424346E-4,6.2547735E-4],"categories":[],"categories_nodes":[],"categories_segments":[],"categories_sizes":[],"default_left":[0,0,0,0,0,0,0,0,0,0,0,0,0],"id":21,"left_children":[1,3,5,7,-1,9,11,-1,-1,-1,-1,-1,-1],"loss_changes":[5.6724615E2,2.531311E1,5.8687274E2,1.9100342E1,0E0,1.9659271E1,5.769527E2,0E0,0E0,0E0,0E0,0E0,0E0],"parents":[2147483647,0,0,1,1,2,2,3,3,5,5,6,6],"right_children":[2,4,6,8,-1,10,12,-1,-1,-1,-1,-1,-1],"split_conditions":[3E0,1.4043265E2,6E0,4.257789E1,-0E0,1.29E2,2E0,7.3943706E-4,-0E0,8.1346557E-4,1.2112821E-4,-6.424346E-4,6.2547735E-4],"split_indices":[10,25,1,9,0,26,8,0,0,0,0,0,0],"split_type":[0,0,0,0,0,0,0,0,0,0,0,0,0],"sum_hessian":[1.8359573E3,4.4213412E2,1.3938232E3,4.2313855E2,1.8995571E1,2.559074E2,1.1379158E3,4.1614014E2,6.9983907E0,2.1467197E2,4.123543E1,9.389532E2,1.9896262E2],"tree_param":{"num_deleted":"0","num_feature":"32","num_nodes":"13","size_leaf_vector":"1"}},{"base_weights":[-7.04096E-3,1.2404333E0,-2.7312693E-1,1.280441E0,-0E0,8.85762E-1,-7.039564E-1,8.9126447E-4,-0E0,6.351077E-4,-4.5775104E-4,-7.0677436E-4,5.3106726E-4],"categories":[],"categories_nodes":[],"categories_segments":[],"categories_sizes":[],"default_left":[0,0,0,0,0,0,0,0,0,0,0,0,0],"id":22,"left_children":[1,3,5,7,-1,9,11,-1,-1,-1,-1,-1,-1],"loss_changes":[5.947363E2,2.100299E1,7.479771E2,1.5600555E1,0E0,3.015091E1,5.410758E2,0E0,0E0,0E0,0E0,0E0,0E0],"parents":[2147483647,0,0,1,1,2,2,3,3,5,5,6,6],"right_children":[2,4,6,8,-1,10,12,-1,-1,-1,-1,-1,-1],"split_conditions":[6E0,1.98E2,3E0,9.918402E1,-0E0,2.31E2,2E0,8.9126447E-4,-0E0,6.351077E-4,-4.5775104E-4,-7.0677436E-4,5.3106726E-4],"split_indices":[1,26,10,31,0,26,8,0,0,0,0,0,0],"split_type":[0,0,0,0,0,0,0,0,0,0,0,0,0],"sum_hessian":[1.8114506E3,3.12881E2,1.4985696E3,3.0638318E2,6.4978204E0,4.0114655E2,1.097423E3,3.041339E2,2.2492747E0,3.9514752E2,5.9990144E0,9.014604E2,1.9596257E2],"tree_param":{"num_deleted":"0","num_feature":"32","num_nodes":"13","size_leaf_vector":"1"}},{"base_weights":[-0E0,9.949355E-1,-3.573623E-1,1.0171759E0,-0E0,6.193118E-1,-6.810682E-1,7.022419E-4,-0E0,1.677386E-4,7.847361E-4,-6.7122304E-4,4.732651E-4],"categories":[],"categories_nodes":[],"categories_segments":[],"categories_sizes":[],"default_left":[0,0,0,0,0,0,0,0,0,0,0,0,0],"id":23,"left_children":[1,3,5,7,-1,9,11,-1,-1,-1,-1,-1,-1],"loss_changes":[6.7094214E2,9.461609E0,4.356969E2,9.096497E0,0E0,5.6042053E1,4.3355652E2,0E0,0E0,0E0,0E0,0E0,0E0],"parents":[2147483647,0,0,1,1,2,2,3,3,5,5,6,6],"right_children":[2,4,6,8,-1,10,12,-1,-1,-1,-1,-1,-1],"split_conditions":[3E0,1.21346846E-1,2.1E2,5E-1,-0E0,3E1,2E0,7.022419E-4,-0E0,1.677386E-4,7.847361E-4,-6.7122304E-4,4.732651E-4],"split_indices":[10,24,7,13,0,6,8,0,0,0,0,0,0],"split_type":[0,0,0,0,0,0,0,0,0,0,0,0,0],"sum_hessian":[1.8736774E3,4.9935843E2,1.374319E3,4.8686194E2,1.2496485E1,3.361453E2,1.0381737E3,4.8511234E2,1.7495968E0,2.0619586E2,1.2994942E2,8.5595953E2,1.822142E2],"tree_param":{"num_deleted":"0","num_feature":"32","num_nodes":"13","size_leaf_vector":"1"}},{"base_weights":[-3.96343E-2,1.1270998E0,-2.896408E-1,1.1693742E0,-0E0,8.551484E-1,-4.4492415E-1,-0E0,8.150397E-4,-0E0,6.997049E-4,-3.4676056E-4,3.2507975E-4],"categories":[],"categories_nodes":[],"categories_segments":[],"categories_sizes":[],"default_left":[0,0,0,0,0,0,0,0,0,0,0,0,0],"id":24,"left_children":[1,3,5,7,-1,9,11,-1,-1,-1,-1,-1,-1],"loss_changes":[5.20853E2,1.7119354E1,2.6278082E2,1.3969025E1,0E0,2.3294395E1,7.6849945E1,0E0,0E0,0E0,0E0,0E0,0E0],"parents":[2147483647,0,0,1,1,2,2,3,3,5,5,6,6],"right_children":[2,4,6,8,-1,10,12,-1,-1,-1,-1,-1,-1],"split_conditions":[6E0,1.98E2,5E0,-5.1E1,-0E0,9.3449135E0,3.1E1,-0E0,8.150397E-4,-0E0,6.997049E-4,-3.4676056E-4,3.2507975E-4],"split_indices":[1,26,2,14,0,4,5,0,0,0,0,0,0],"split_type":[0,0,0,0,0,0,0,0,0,0,0,0,0],"sum_hessian":[1.8049396E3,3.1262363E2,1.4923159E3,3.0287698E2,9.746647E0,1.7196654E2,1.3203494E3,2.2492151E0,3.0062778E2,3.0244308E1,1.4172223E2,1.2441067E3,7.624278E1],"tree_param":{"num_deleted":"0","num_feature":"32","num_nodes":"13","size_leaf_vector":"1"}},{"base_weights":[9.720277E-3,1.0556185E0,-3.7218052E-1,1.0794625E0,-0E0,1.0183455E0,-6.7650384E-1,-0E0,7.4967707E-4,7.423211E-4,-3.5276203E-4,5.0138746E-4,-5.8824214E-4],"categories":[],"categories_nodes":[],"categories_segments":[],"categories_sizes":[],"default_left":[0,0,0,0,0,0,0,0,0,0,0,0,0],"id":25,"left_children":[1,3,5,7,-1,9,11,-1,-1,-1,-1,-1,-1],"loss_changes":[7.4710614E2,1.7697693E1,5.717767E2,1.2628723E1,0E0,2.997969E1,2.9270035E2,0E0,0E0,0E0,0E0,0E0,0E0],"parents":[2147483647,0,0,1,1,2,2,3,3,5,5,6,6],"right_children":[2,4,6,8,-1,10,12,-1,-1,-1,-1,-1,-1],"split_conditions":[3E0,2.45E2,6E0,3.7037037E-2,-0E0,1.9E3,5E0,-0E0,7.4967707E-4,7.423211E-4,-3.5276203E-4,5.0138746E-4,-5.8824214E-4],"split_indices":[10,26,1,27,0,30,2,0,0,0,0,0,0],"split_type":[0,0,0,0,0,0,0,0,0,0,0,0,0],"sum_hessian":[1.8556807E3,5.0110355E2,1.3545771E3,4.9435486E2,6.7486844E0,2.3840019E2,1.1161769E3,5.748708E0,4.8860617E2,2.3315192E2,5.248263E0,1.2422958E2,9.919473E2],"tree_param":{"num_deleted":"0","num_feature":"32","num_nodes":"13","size_leaf_vector":"1"}},{"base_weights":[-1.778011E-2,8.7835926E-1,-3.1086946E-1,9.396035E-1,-0E0,1.0700227E0,-6.1183774E-1,-0E0,6.710213E-4,-2.6791278E-4,3.545536E-4,7.578353E-4,-0E0,-6.204548E-4,5.487853E-4],"categories":[],"categories_nodes":[],"categories_segments":[],"categories_sizes":[],"default_left":[0,0,0,0,0,0,0,0,0,0,0,0,0,0,0],"id":26,"left_children":[1,3,5,7,9,11,13,-1,-1,-1,-1,-1,-1,-1,-1],"loss_changes":[4.7122012E2,2.2276093E1,5.667486E2,1.6595825E1,6.7519817E0,1.0001404E1,4.758827E2,0E0,0E0,0E0,0E0,0E0,0E0,0E0,0E0],"parents":[2147483647,0,0,1,1,2,2,3,3,4,4,5,5,6,6],"right_children":[2,4,6,8,10,12,14,-1,-1,-1,-1,-1,-1,-1,-1],"split_conditions":[3E0,1.1179848E-1,6E0,1.7E-1,1.8E0,5.6666668E1,2E0,-0E0,6.710213E-4,-2.6791278E-4,3.545536E-4,7.578353E-4,-0E0,-6.204548E-4,5.487853E-4],"split_indices":[10,17,1,12,28,29,8,0,0,0,0,0,0,0,0],"split_type":[0,0,0,0,0,0,0,0,0,0,0,0,0,0,0],"sum_hessian":[1.8081917E3,4.388672E2,1.3693245E3,4.0862595E2,3.0241247E1,2.4014551E2,1.129179E3,1.7744629E1,3.9088132E2,1.5745466E1,1.4495781E1,2.3139851E2,8.746989E0,9.3821625E2,1.9096275E2],"tree_param":{"num_deleted":"0","num_feature":"32","num_nodes":"15","size_leaf_vector":"1"}},{"base_weights":[2.0688588E-3,1.0606548E0,-3.872811E-1,1.0918912E0,-0E0,-6.8681526E-1,9.5671874E-1,7.665786E-4,-0E0,-7.1882654E-4,5.9492956E-4,8.152148E-5,7.5066765E-4],"categories":[],"categories_nodes":[],"categories_segments":[],"categories_sizes":[],"default_left":[0,0,0,0,0,0,0,0,0,0,0,0,0],"id":27,"left_children":[1,3,5,7,-1,9,11,-1,-1,-1,-1,-1,-1],"loss_changes":[7.605801E2,2.0677002E1,5.3610736E2,1.6172363E1,0E0,6.270151E2,1.9282822E1,0E0,0E0,0E0,0E0,0E0,0E0],"parents":[2147483647,0,0,1,1,2,2,3,3,5,5,6,6],"right_children":[2,4,6,8,-1,10,12,-1,-1,-1,-1,-1,-1],"split_conditions":[3E0,2.17E2,2E0,1.0857964E-1,-0E0,1E0,9.683805E-2,7.665786E-4,-0E0,-7.1882654E-4,5.9492956E-4,8.152148E-5,7.5066765E-4],"split_indices":[10,26,8,23,0,27,16,0,0,0,0,0,0],"split_type":[0,0,0,0,0,0,0,0,0,0,0,0,0],"sum_hessian":[1.8311604E3,4.9708963E2,1.3340707E3,4.8634207E2,1.0747544E1,1.095877E3,2.3819379E2,4.7309637E2,1.3245697E1,8.9171484E2,2.0416208E2,4.248887E1,1.9570493E2],"tree_param":{"num_deleted":"0","num_feature":"32","num_nodes":"13","size_leaf_vector":"1"}},{"base_weights":[-1.7069882E-2,9.5590055E-1,-3.4905007E-1,9.8228604E-1,-0E0,1.143985E0,-7.529183E-1,-0E0,6.873477E-4,8.0606923E-4,-0E0,3.7601683E-4,-6.2966376E-4],"categories":[],"categories_nodes":[],"categories_segments":[],"categories_sizes":[],"default_left":[0,0,0,0,0,0,0,0,0,0,0,0,0],"id":28,"left_children":[1,3,5,7,-1,9,11,-1,-1,-1,-1,-1,-1],"loss_changes":[5.88492E2,1.3947601E1,8.2678577E2,1.1970856E1,0E0,1.9781738E1,2.4255353E2,0E0,0E0,0E0,0E0,0E0,0E0],"parents":[2147483647,0,0,1,1,2,2,3,3,5,5,6,6],"right_children":[2,4,6,8,-1,10,12,-1,-1,-1,-1,-1,-1],"split_conditions":[3E0,1.21346846E-1,6E0,-5.2E1,-0E0,3.8E1,5E0,-0E0,6.873477E-4,8.0606923E-4,-0E0,3.7601683E-4,-6.2966376E-4],"split_indices":[10,24,1,14,0,2,2,0,0,0,0,0,0],"split_type":[0,0,0,0,0,0,0,0,0,0,0,0,0],"sum_hessian":[1.833906E3,4.6034964E2,1.3735564E3,4.5035278E2,9.996862E0,2.8811835E2,1.085438E3,9.497632E0,4.4085516E2,2.8486957E2,3.248807E0,1.1923192E2,9.6620605E2],"tree_param":{"num_deleted":"0","num_feature":"32","num_nodes":"13","size_leaf_vector":"1"}},{"base_weights":[-3.973621E-2,9.4963396E-1,-3.5953754E-1,1.1007421E0,4.098732E-1,9.907867E-1,-6.4783794E-1,-0E0,7.7243056E-4,5.9838995E-4,-0E0,-0E0,6.9867476E-4,5.3926895E-4,-6.047966E-4],"categories":[],"categories_nodes":[],"categories_segments":[],"categories_sizes":[],"default_left":[0,0,0,0,0,0,0,0,0,0,0,0,0,0,0],"id":29,"left_children":[1,3,5,7,9,11,13,-1,-1,-1,-1,-1,-1,-1,-1],"loss_changes":[5.7041907E2,2.4007751E1,5.347578E2,1.46033325E1,1.5964653E1,1.2811951E1,3.9121588E2,0E0,0E0,0E0,0E0,0E0,0E0,0E0,0E0],"parents":[2147483647,0,0,1,1,2,2,3,3,4,4,5,5,6,6],"right_children":[2,4,6,8,10,12,14,-1,-1,-1,-1,-1,-1,-1,-1],"split_conditions":[3E0,2.4E1,6E0,-5.4E1,9.757582E-2,2.3848488E0,5E0,-0E0,7.7243056E-4,5.9838995E-4,-0E0,-0E0,6.9867476E-4,5.3926895E-4,-6.047966E-4],"split_indices":[10,2,1,14,17,4,2,0,0,0,0,0,0,0,0],"split_type":[0,0,0,0,0,0,0,0,0,0,0,0,0,0,0],"sum_hessian":[1.8146702E3,4.371017E2,1.3775685E3,3.2988373E2,1.0721801E2,2.3738692E2,1.1401815E3,5.998357E0,3.2388538E2,4.348575E1,6.3732258E1,2.4988942E0,2.3488803E2,1.5697563E2,9.8320593E2],"tree_param":{"num_deleted":"0","num_feature":"32","num_nodes":"15","size_leaf_vector":"1"}},{"base_weights":[7.0870523E-3,9.6580917E-1,-3.2786253E-1,-0E0,1.0316439E0,6.8585914E-1,-6.7280537E-1,2.0576207E-4,-5.2367337E-4,7.240175E-4,-0E0,2.6681011E-5,6.899563E-4,-6.648487E-4,4.67636E-4],"categories":[],"categories_nodes":[],"categories_segments":[],"categories_sizes":[],"default_left":[0,0,0,0,0,0,0,0,0,0,0,0,0,0,0],"id":30,"left_children":[1,3,5,7,9,11,13,-1,-1,-1,-1,-1,-1,-1,-1],"loss_changes":[6.0481866E2,2.820523E1,4.8258643E2,6.9934883E0,1.5814056E1,6.452139E1,4.251205E2,0E0,0E0,0E0,0E0,0E0,0E0,0E0,0E0],"parents":[2147483647,0,0,1,1,2,2,3,3,4,4,5,5,6,6],"right_children":[2,4,6,8,10,12,14,-1,-1,-1,-1,-1,-1,-1,-1],"split_conditions":[3E0,7.1428575E-2,2.1E2,1.8744768E1,1.0857964E-1,8.75E-1,2E0,2.0576207E-4,-5.2367337E-4,7.240175E-4,-0E0,2.6681011E-5,6.899563E-4,-6.648487E-4,4.67636E-4],"split_indices":[10,27,7,4,23,27,8,0,0,0,0,0,0,0,0],"split_type":[0,0,0,0,0,0,0,0,0,0,0,0,0,0,0],"sum_hessian":[1.866633E3,4.8857843E2,1.3780547E3,3.398996E1,4.5458847E2,3.4412192E2,1.0339327E3,2.7491705E1,6.4982543E0,4.4459128E2,9.9972E0,1.2297953E2,2.211424E2,8.512216E2,1.8271115E2],"tree_param":{"num_deleted":"0","num_feature":"32","num_nodes":"15","size_leaf_vector":"1"}},{"base_weights":[-0E0,1.0264559E0,-3.874161E-1,1.0526415E0,-1.5165364E-4,-6.358919E-1,8.063303E-1,-0E0,7.365804E-4,3.642088E-4,-6.5332634E-4,6.5295456E-4,-0E0],"categories":[],"categories_nodes":[],"categories_segments":[],"categories_sizes":[],"default_left":[0,0,0,0,0,0,0,0,0,0,0,0,0],"id":31,"left_children":[1,3,5,7,-1,9,11,-1,-1,-1,-1,-1,-1],"loss_changes":[7.285355E2,2.2789185E1,3.972471E2,1.9113464E1,0E0,4.2215897E2,2.4543594E1,0E0,0E0,0E0,0E0,0E0,0E0],"parents":[2147483647,0,0,1,1,2,2,3,3,5,5,6,6],"right_children":[2,4,6,8,-1,10,12,-1,-1,-1,-1,-1,-1],"split_conditions":[3E0,3.9E1,2E0,-5.1E1,-1.5165364E-4,1.7E2,1.02E3,-0E0,7.365804E-4,3.642088E-4,-6.5332634E-4,6.5295456E-4,-0E0],"split_indices":[10,2,8,14,0,7,30,0,0,0,0,0,0],"split_type":[0,0,0,0,0,0,0,0,0,0,0,0,0],"sum_hessian":[1.840136E3,4.9931738E2,1.3408186E3,4.950684E2,4.249019E0,1.1153748E3,2.2544385E2,6.997896E0,4.880705E2,2.3490622E2,8.8046857E2,1.8695174E2,3.8492107E1],"tree_param":{"num_deleted":"0","num_feature":"32","num_nodes":"13","size_leaf_vector":"1"}},{"base_weights":[-3.7878934E-2,-2.4266553E-1,1.0106759E0,1.0291628E0,-4.3116388E-1,1.0863327E0,-0E0,7.8290096E-4,-5.7165255E-4,-4.3946426E-4,5.144633E-4,-0E0,7.646171E-4,-2.8817903E-4,4.3926336E-4],"categories":[],"categories_nodes":[],"categories_segments":[],"categories_sizes":[],"default_left":[0,0,0,0,0,0,0,0,0,0,0,0,0,0,0],"id":32,"left_children":[1,3,5,7,9,11,13,-1,-1,-1,-1,-1,-1,-1,-1],"loss_changes":[3.790712E2,3.5679358E2,1.6903046E1,4.4658432E1,3.306363E2,1.5750336E1,8.144935E0,0E0,0E0,0E0,0E0,0E0,0E0,0E0,0E0],"parents":[2147483647,0,0,1,1,2,2,3,3,4,4,5,5,6,6],"right_children":[2,4,6,8,10,12,14,-1,-1,-1,-1,-1,-1,-1,-1],"split_conditions":[1E0,5E0,3.375E1,6.9355644E1,2E0,3.7043638E0,6.1E1,7.8290096E-4,-5.7165255E-4,-4.3946426E-4,5.144633E-4,-0E0,7.646171E-4,-2.8817903E-4,4.3926336E-4],"split_indices":[27,2,29,31,8,4,0,0,0,0,0,0,0,0,0],"split_type":[0,0,0,0,0,0,0,0,0,0,0,0,0,0,0],"sum_hessian":[1.7898892E3,1.5040321E3,2.8585703E2,1.8845369E2,1.3155785E3,2.6161575E2,2.4241274E1,1.814547E2,6.998999E0,1.1213765E3,1.9420197E2,2.7485752E0,2.5886716E2,1.0497107E1,1.3744167E1],"tree_param":{"num_deleted":"0","num_feature":"32","num_nodes":"15","size_leaf_vector":"1"}},{"base_weights":[1.6882548E-2,1.0551572E0,-3.6396664E-1,1.093149E0,-0E0,1.081476E0,-7.0407414E-1,7.5884984E-4,-0E0,4.7264193E-4,-5.7973573E-4,7.67694E-4,-0E0,-7.2144996E-4,5.6148996E-4],"categories":[],"categories_nodes":[],"categories_segments":[],"categories_sizes":[],"default_left":[0,0,0,0,0,0,0,0,0,0,0,0,0,0,0],"id":33,"left_children":[1,3,5,7,9,11,13,-1,-1,-1,-1,-1,-1,-1,-1],"loss_changes":[7.40487E2,1.667218E1,6.6422046E2,1.5669434E1,1.2702875E1,1.5949432E1,5.949046E2,0E0,0E0,0E0,0E0,0E0,0E0,0E0,0E0],"parents":[2147483647,0,0,1,1,2,2,3,3,4,4,5,5,6,6],"right_children":[2,4,6,8,10,12,14,-1,-1,-1,-1,-1,-1,-1,-1],"split_conditions":[3E0,2.8E3,6E0,4.541926E1,9.883232E-2,7E0,2E0,7.5884984E-4,-0E0,4.7264193E-4,-5.7973573E-4,7.67694E-4,-0E0,-7.2144996E-4,5.6148996E-4],"split_indices":[10,7,1,9,18,27,8,0,0,0,0,0,0,0,0],"split_type":[0,0,0,0,0,0,0,0,0,0,0,0,0,0,0],"sum_hessian":[1.8576144E3,5.0331027E2,1.3543041E3,4.8281735E2,2.0492893E1,2.5336992E2,1.1009342E3,4.8006818E2,2.749178E0,1.3495177E1,6.9977155E0,2.4712326E2,6.246647E0,8.987295E2,2.0220473E2],"tree_param":{"num_deleted":"0","num_feature":"32","num_nodes":"15","size_leaf_vector":"1"}},{"base_weights":[-1.0893051E-2,-2.2642261E-1,8.4554935E-1,8.576758E-1,-3.6641932E-1,9.6472496E-1,-0E0,-0E0,6.8809435E-4,5.6592806E-5,-3.2378547E-4,7.141622E-4,-0E0,-2.7317574E-4,4.8358535E-4],"categories":[],"categories_nodes":[],"categories_segments":[],"categories_sizes":[],"default_left":[0,0,0,0,0,0,0,0,0,0,0,0,0,0,0],"id":34,"left_children":[1,3,5,7,9,11,13,-1,-1,-1,-1,-1,-1,-1,-1],"loss_changes":[3.291456E2,2.1694803E2,3.0176895E1,2.470948E1,6.545097E1,1.8659454E1,1.6629608E1,0E0,0E0,0E0,0E0,0E0,0E0,0E0,0E0],"parents":[2147483647,0,0,1,1,2,2,3,3,4,4,5,5,6,6],"right_children":[2,4,6,8,10,12,14,-1,-1,-1,-1,-1,-1,-1,-1],"split_conditions":[6.666667E-1,5E0,3.625E1,-2.43E0,9.686065E-2,8.1E-1,6.9581055E1,-0E0,6.8809435E-4,5.6592806E-5,-3.2378547E-4,7.141622E-4,-0E0,-2.7317574E-4,4.8358535E-4],"split_indices":[27,2,29,28,23,28,31,0,0,0,0,0,0,0,0],"split_type":[0,0,0,0,0,0,0,0,0,0,0,0,0,0,0],"sum_hessian":[1.8061244E3,1.4505365E3,3.5558783E2,1.5921123E2,1.2913253E3,3.0535266E2,5.0235172E1,1.9744833E1,1.3946638E2,2.3621402E2,1.0551113E3,2.7686252E2,2.8490147E1,2.6994175E1,2.3241E1],"tree_param":{"num_deleted":"0","num_feature":"32","num_nodes":"15","size_leaf_vector":"1"}},{"base_weights":[-0E0,1.0048356E0,-3.4703577E-1,1.0369725E0,-3.056717E-4,1.0276924E0,-6.6153485E-1,7.228205E-4,-0E0,7.36695E-4,-0E0,-6.408293E-4,4.875953E-4],"categories":[],"categories_nodes":[],"categories_segments":[],"categories_sizes":[],"default_left":[0,0,0,0,0,0,0,0,0,0,0,0,0],"id":35,"left_children":[1,3,5,7,-1,9,11,-1,-1,-1,-1,-1,-1],"loss_changes":[6.4786365E2,2.7129883E1,5.94505E2,1.7431091E1,0E0,1.8967987E1,4.316078E2,0E0,0E0,0E0,0E0,0E0,0E0],"parents":[2147483647,0,0,1,1,2,2,3,3,5,5,6,6],"right_children":[2,4,6,8,-1,10,12,-1,-1,-1,-1,-1,-1],"split_conditions":[3E0,2.32E2,6E0,4.541926E1,-3.056717E-4,8.2E-1,2E0,7.228205E-4,-0E0,7.36695E-4,-0E0,-6.408293E-4,4.875953E-4],"split_indices":[10,26,1,9,0,12,8,0,0,0,0,0,0],"split_type":[0,0,0,0,0,0,0,0,0,0,0,0,0],"sum_hessian":[1.8548645E3,4.7606406E2,1.3788004E3,4.710652E2,4.998899E0,2.5186383E2,1.1269365E3,4.6781625E2,3.2489114E0,2.4486758E2,6.9962363E0,9.429785E2,1.8395807E2],"tree_param":{"num_deleted":"0","num_feature":"32","num_nodes":"13","size_leaf_vector":"1"}},{"base_weights":[-6.556105E-2,-2.6971158E-1,8.079835E-1,-4.7306457E-1,7.8818685E-1,3.9255044E-1,1.1368983E0,4.5523926E-4,-4.7590956E-4,6.623244E-4,-0E0,3.919207E-4,-1.1266924E-4,8.5563E-4,-0E0],"categories":[],"categories_nodes":[],"categories_segments":[],"categories_sizes":[],"default_left":[0,0,0,0,0,0,0,0,0,0,0,0,0,0,0],"id":36,"left_children":[1,3,5,7,9,11,13,-1,-1,-1,-1,-1,-1,-1,-1],"loss_changes":[3.1276685E2,3.0920905E2,3.3175568E1,3.1167172E2,2.5881973E1,1.9030748E1,2.1327454E1,0E0,0E0,0E0,0E0,0E0,0E0,0E0,0E0],"parents":[2147483647,0,0,1,1,2,2,3,3,4,4,5,5,6,6],"right_children":[2,4,6,8,10,12,14,-1,-1,-1,-1,-1,-1,-1,-1],"split_conditions":[6.666667E-1,2E0,1.5E0,7E0,4.9011482E1,1.02E3,1.45E2,4.5523926E-4,-4.7590956E-4,6.623244E-4,-0E0,3.919207E-4,-1.1266924E-4,8.5563E-4,-0E0],"split_indices":[27,8,27,2,31,30,26,0,0,0,0,0,0,0,0],"split_type":[0,0,0,0,0,0,0,0,0,0,0,0,0,0,0],"sum_hessian":[1.7741241E3,1.4455325E3,3.2859164E2,1.2188485E3,2.2668402E2,1.5619458E2,1.7239708E2,1.9420929E2,1.0246392E3,1.7694736E2,4.9736675E1,1.2795196E2,2.8242617E1,1.5540651E2,1.6990568E1],"tree_param":{"num_deleted":"0","num_feature":"32","num_nodes":"15","size_leaf_vector":"1"}},{"base_weights":[-4.031712E-3,9.784056E-1,-3.3303893E-1,1.0017891E0,-0E0,1.044873E0,-6.3314635E-1,7.0193066E-4,-0E0,-0E0,7.678888E-4,-6.653352E-4,6.088936E-4],"categories":[],"categories_nodes":[],"categories_segments":[],"categories_sizes":[],"default_left":[0,0,0,0,0,0,0,0,0,0,0,0,0],"id":37,"left_children":[1,3,5,7,-1,9,11,-1,-1,-1,-1,-1,-1],"loss_changes":[5.8786237E2,1.7525116E1,5.6795636E2,1.6570648E1,0E0,2.6933899E1,5.928996E2,0E0,0E0,0E0,0E0,0E0,0E0],"parents":[2147483647,0,0,1,1,2,2,3,3,5,5,6,6],"right_children":[2,4,6,8,-1,10,12,-1,-1,-1,-1,-1,-1],"split_conditions":[3E0,1.0857964E-1,6E0,1.056E1,-0E0,3.3333333E0,2E0,7.0193066E-4,-0E0,-0E0,7.678888E-4,-6.653352E-4,6.088936E-4],"split_indices":[10,23,1,28,0,29,8,0,0,0,0,0,0],"split_type":[0,0,0,0,0,0,0,0,0,0,0,0,0],"sum_hessian":[1.8316107E3,4.533175E2,1.3782932E3,4.498185E2,3.49899E0,2.4161119E2,1.136682E3,4.4307068E2,6.7478256E0,1.1743387E1,2.2986781E2,9.332314E2,2.0345065E2],"tree_param":{"num_deleted":"0","num_feature":"32","num_nodes":"13","size_leaf_vector":"1"}},{"base_weights":[1.2675449E-2,1.0013014E0,-3.3946425E-1,1.0409423E0,-1.5373663E-4,1.0594376E0,-6.406619E-1,7.340472E-4,-0E0,7.9215295E-4,-5.416303E-5,-6.429576E-4,5.045367E-4],"categories":[],"categories_nodes":[],"categories_segments":[],"categories_sizes":[],"default_left":[0,0,0,0,0,0,0,0,0,0,0,0,0],"id":38,"left_children":[1,3,5,7,-1,9,11,-1,-1,-1,-1,-1,-1],"loss_changes":[6.4614014E2,3.0110352E1,5.6744214E2,2.1595581E1,0E0,3.5078125E1,4.6587183E2,0E0,0E0,0E0,0E0,0E0,0E0],"parents":[2147483647,0,0,1,1,2,2,3,3,5,5,6,6],"right_children":[2,4,6,8,-1,10,12,-1,-1,-1,-1,-1,-1],"split_conditions":[3E0,2.31E2,6E0,3.01E3,-1.5373663E-4,1.82E2,2E0,7.340472E-4,-0E0,7.9215295E-4,-5.416303E-5,-6.429576E-4,5.045367E-4],"split_indices":[10,26,1,7,0,26,8,0,0,0,0,0,0],"split_type":[0,0,0,0,0,0,0,0,0,0,0,0,0],"sum_hessian":[1.8398431E3,4.882998E2,1.3515433E3,4.790518E2,9.248023E0,2.3461006E2,1.1169332E3,4.6805533E2,1.09964485E1,2.2161642E2,1.2993636E1,9.217319E2,1.952014E2],"tree_param":{"num_deleted":"0","num_feature":"32","num_nodes":"13","size_leaf_vector":"1"}},{"base_weights":[-5.3245604E-2,8.640216E-1,-2.610107E-1,9.978032E-1,3.2935906E-2,1.0338435E0,-4.5348564E-1,-0E0,7.479048E-4,3.9152085E-4,-8.506558E-4,7.9745747E-4,-0E0,-1.2278842E-4,-4.344288E-4],"categories":[],"categories_nodes":[],"categories_segments":[],"categories_sizes":[],"default_left":[0,0,0,0,0,0,0,0,0,0,0,0,0,0,0],"id":39,"left_children":[1,3,5,7,9,11,13,-1,-1,-1,-1,-1,-1,-1,-1],"loss_changes":[3.388266E2,2.8529114E1,3.638128E2,3.1580261E1,3.298056E1,1.7328552E1,5.8259308E1,0E0,0E0,0E0,0E0,0E0,0E0,0E0,0E0],"parents":[2147483647,0,0,1,1,2,2,3,3,4,4,5,5,6,6],"right_children":[2,4,6,8,10,12,14,-1,-1,-1,-1,-1,-1,-1,-1],"split_conditions":[1.6E2,5.9E-1,5E0,-7.8E-1,2.2E1,1.0746943E-1,1.02515176E-1,-0E0,7.479048E-4,3.9152085E-4,-8.506558E-4,7.9745747E-4,-0E0,-1.2278842E-4,-4.344288E-4],"split_indices":[7,28,2,28,2,17,23,0,0,0,0,0,0,0,0],"split_type":[0,0,0,0,0,0,0,0,0,0,0,0,0,0,0],"sum_hessian":[1.7993375E3,3.2507538E2,1.4742621E3,2.7209525E2,5.2980137E1,1.8520055E2,1.2890616E3,1.9992228E1,2.5210303E2,4.173212E1,1.12480135E1,1.5770753E2,2.7493008E1,5.32915E2,7.561466E2],"tree_param":{"num_deleted":"0","num_feature":"32","num_nodes":"15","size_leaf_vector":"1"}},{"base_weights":[7.4032187E-3,1.0055282E0,-3.4981078E-1,1.0397562E0,-0E0,1.1132532E0,-7.0102066E-1,7.263616E-4,-0E0,-0E0,8.0368435E-4,5.775922E-4,-6.418863E-4],"categories":[],"categories_nodes":[],"categories_segments":[],"categories_sizes":[],"default_left":[0,0,0,0,0,0,0,0,0,0,0,0,0],"id":40,"left_children":[1,3,5,7,-1,9,11,-1,-1,-1,-1,-1,-1],"loss_changes":[6.742322E2,1.6381775E1,7.0527673E2,1.3340393E1,0E0,2.3292206E1,4.1331287E2,0E0,0E0,0E0,0E0,0E0,0E0],"parents":[2147483647,0,0,1,1,2,2,3,3,5,5,6,6],"right_children":[2,4,6,8,-1,10,12,-1,-1,-1,-1,-1,-1],"split_conditions":[3E0,2.7E1,6E0,1.21346846E-1,-0E0,3.3333333E0,5E0,7.263616E-4,-0E0,-0E0,8.0368435E-4,5.775922E-4,-6.418863E-4],"split_indices":[10,5,1,24,0,29,2,0,0,0,0,0,0],"split_type":[0,0,0,0,0,0,0,0,0,0,0,0,0],"sum_hessian":[1.875308E3,4.9928537E2,1.3760226E3,4.8204257E2,1.7242819E1,2.6183905E2,1.1141836E3,4.725458E2,9.496764E0,1.0743563E1,2.5109549E2,1.44476E2,9.697076E2],"tree_param":{"num_deleted":"0","num_feature":"32","num_nodes":"13","size_leaf_vector":"1"}},{"base_weights":[5.360125E-2,1.0409921E0,-3.0335745E-1,1.1830999E0,5.149524E-1,1.0689473E0,-6.2269443E-1,8.223466E-4,-0E0,-0E0,5.4326124E-4,7.530133E-4,-0E0,-6.395113E-4,5.3017936E-4],"categories":[],"categories_nodes":[],"categories_segments":[],"categories_sizes":[],"default_left":[0,0,0,0,0,0,0,0,0,0,0,0,0,0,0],"id":41,"left_children":[1,3,5,7,9,11,13,-1,-1,-1,-1,-1,-1,-1,-1],"loss_changes":[6.738321E2,2.4770142E1,6.052749E2,1.5766724E1,2.2877407E1,1.5432678E1,4.978581E2,0E0,0E0,0E0,0E0,0E0,0E0,0E0,0E0],"parents":[2147483647,0,0,1,1,2,2,3,3,4,4,5,5,6,6],"right_children":[2,4,6,8,10,12,14,-1,-1,-1,-1,-1,-1,-1,-1],"split_conditions":[3E0,2.4E1,6E0,3E0,3E0,4E1,2E0,8.223466E-4,-0E0,-0E0,5.4326124E-4,7.530133E-4,-0E0,-6.395113E-4,5.3017936E-4],"split_indices":[10,2,1,8,14,2,8,0,0,0,0,0,0,0,0],"split_type":[0,0,0,0,0,0,0,0,0,0,0,0,0,0,0],"sum_hessian":[1.8942947E3,5.0802554E2,1.3862692E3,3.8782092E2,1.202046E2,2.5683597E2,1.1294332E3,3.8532224E2,2.498699E0,3.4238228E1,8.596638E1,2.5408719E2,2.748771E0,9.272336E2,2.0219962E2],"tree_param":{"num_deleted":"0","num_feature":"32","num_nodes":"15","size_leaf_vector":"1"}},{"base_weights":[2.1026807E-3,9.419262E-1,-3.040368E-1,4.1327864E-1,1.0829965E0,-5.7418835E-1,9.5890594E-1,4.71849E-4,-2.700922E-4,-0E0,7.8079046E-4,-6.1058026E-4,6.0625793E-4,8.1155484E-4,2.7698005E-4],"categories":[],"categories_nodes":[],"categories_segments":[],"categories_sizes":[],"default_left":[0,0,0,0,0,0,0,0,0,0,0,0,0,0,0],"id":42,"left_children":[1,3,5,7,9,11,13,-1,-1,-1,-1,-1,-1,-1,-1],"loss_changes":[5.463986E2,2.3327728E1,4.8011743E2,2.7494701E1,1.6924408E1,5.4787805E2,1.8668747E1,0E0,0E0,0E0,0E0,0E0,0E0,0E0,0E0],"parents":[2147483647,0,0,1,1,2,2,3,3,4,4,5,5,6,6],"right_children":[2,4,6,8,10,12,14,-1,-1,-1,-1,-1,-1,-1,-1],"split_conditions":[3E0,-9.1E-1,2E0,2.4E1,6.779661E-2,1E0,1.65E2,4.71849E-4,-2.700922E-4,-0E0,7.8079046E-4,-6.1058026E-4,6.0625793E-4,8.1155484E-4,2.7698005E-4],"split_indices":[10,28,8,2,27,27,29,0,0,0,0,0,0,0,0],"split_type":[0,0,0,0,0,0,0,0,0,0,0,0,0,0,0],"sum_hessian":[1.8805415E3,4.6753812E2,1.4130034E3,1.10454094E2,3.57084E2,1.1693307E3,2.4367274E2,8.9210945E1,2.1243147E1,2.3741354E1,3.3334268E2,9.639658E2,2.0536482E2,1.6194188E2,8.173086E1],"tree_param":{"num_deleted":"0","num_feature":"32","num_nodes":"15","size_leaf_vector":"1"}},{"base_weights":[-2.2697555E-2,9.7132623E-1,-3.761853E-1,-0E0,9.9212605E-1,1.0267797E0,-7.003837E-1,6.969558E-4,-0E0,7.2464335E-4,-0E0,3.2402162E-4,-5.983757E-4],"categories":[],"categories_nodes":[],"categories_segments":[],"categories_sizes":[],"default_left":[0,0,0,0,0,0,0,0,0,0,0,0,0],"id":43,"left_children":[1,3,5,-1,7,9,11,-1,-1,-1,-1,-1,-1],"loss_changes":[6.362334E2,1.6109863E1,6.1255176E2,0E0,1.6053009E1,1.4707306E1,2.308523E2,0E0,0E0,0E0,0E0,0E0,0E0],"parents":[2147483647,0,0,1,1,2,2,4,4,5,5,6,6],"right_children":[2,4,6,-1,8,10,12,-1,-1,-1,-1,-1,-1],"split_conditions":[3E0,3.7037037E-2,6E0,-0E0,2.2E2,3.6E2,1.3E2,6.969558E-4,-0E0,7.2464335E-4,-0E0,3.2402162E-4,-5.983757E-4],"split_indices":[10,27,1,0,26,7,30,0,0,0,0,0,0],"split_type":[0,0,0,0,0,0,0,0,0,0,0,0,0],"sum_hessian":[1.8212955E3,4.7177692E2,1.3495187E3,3.2490616E0,4.6852786E2,2.4858461E2,1.100934E3,4.5828043E2,1.02474375E1,2.4583572E2,2.748879E0,1.3748068E2,9.634533E2],"tree_param":{"num_deleted":"0","num_feature":"32","num_nodes":"13","size_leaf_vector":"1"}},{"base_weights":[-1.9774798E-2,9.8295254E-1,-3.8125867E-1,1.0197464E0,-9.6748474E-5,1.1361696E0,-7.56974E-1,7.1122847E-4,-0E0,8.0429646E-4,-0E0,5.2883115E-4,-6.826479E-4],"categories":[],"categories_nodes":[],"categories_segments":[],"categories_sizes":[],"default_left":[0,0,0,0,0,0,0,0,0,0,0,0,0],"id":44,"left_children":[1,3,5,7,-1,9,11,-1,-1,-1,-1,-1,-1],"loss_changes":[6.633777E2,2.6673798E1,7.7325085E2,1.4285065E1,0E0,1.3032959E1,4.088167E2,0E0,0E0,0E0,0E0,0E0,0E0],"parents":[2147483647,0,0,1,1,2,2,3,3,5,5,6,6],"right_children":[2,4,6,8,-1,10,12,-1,-1,-1,-1,-1,-1],"split_conditions":[3E0,1.1E1,6E0,3.9E1,-9.6748474E-5,3.6E1,5E0,7.1122847E-4,-0E0,8.0429646E-4,-0E0,5.2883115E-4,-6.826479E-4],"split_indices":[10,28,1,2,0,2,2,0,0,0,0,0,0],"split_type":[0,0,0,0,0,0,0,0,0,0,0,0,0],"sum_hessian":[1.8405145E3,4.8176697E2,1.3587476E3,4.730204E2,8.7465925E0,2.6531473E2,1.0934329E3,4.667722E2,6.2481704E0,2.5631995E2,8.994763E0,1.4497565E2,9.484572E2],"tree_param":{"num_deleted":"0","num_feature":"32","num_nodes":"13","size_leaf_vector":"1"}},{"base_weights":[-0E0,1.0687261E0,-1.9743653E-1,1.101372E0,-0E0,-4.287691E-1,9.4453365E-1,9.466336E-5,8.1879494E-4,1.4100054E-4,-5.2456424E-4,6.9490215E-4,-0E0],"categories":[],"categories_nodes":[],"categories_segments":[],"categories_sizes":[],"default_left":[0,0,0,0,0,0,0,0,0,0,0,0,0],"id":45,"left_children":[1,3,5,7,-1,9,11,-1,-1,-1,-1,-1,-1],"loss_changes":[3.906009E2,1.6858002E1,4.0437216E2,1.6705078E1,0E0,2.8228912E2,2.4024567E1,0E0,0E0,0E0,0E0,0E0,0E0],"parents":[2147483647,0,0,1,1,2,2,3,3,5,5,6,6],"right_children":[2,4,6,8,-1,10,12,-1,-1,-1,-1,-1,-1],"split_conditions":[6E0,9.891389E1,2E0,7.2892475E0,-0E0,2.9E2,2.4060673E1,9.466336E-5,8.1879494E-4,1.4100054E-4,-5.2456424E-4,6.9490215E-4,-0E0],"split_indices":[1,31,8,4,0,30,4,0,0,0,0,0,0],"split_type":[0,0,0,0,0,0,0,0,0,0,0,0,0],"sum_hessian":[1.8310298E3,2.8829376E2,1.5427361E3,2.8529547E2,2.9982965E0,1.2888162E3,2.5391992E2,3.3476715E1,2.5181876E2,4.4116125E2,8.4765485E2,2.4192282E2,1.1997108E1],"tree_param":{"num_deleted":"0","num_feature":"32","num_nodes":"13","size_leaf_vector":"1"}},{"base_weights":[1.3495296E-2,9.9522865E-1,-3.573643E-1,1.0266978E0,-2.3264756E-5,9.9691E-1,-6.5290314E-1,7.171963E-4,-0E0,-1.6339516E-4,7.1890344E-4,-7.0769695E-4,6.22585E-4],"categories":[],"categories_nodes":[],"categories_segments":[],"categories_sizes":[],"default_left":[0,0,0,0,0,0,0,0,0,0,0,0,0],"id":46,"left_children":[1,3,5,7,-1,9,11,-1,-1,-1,-1,-1,-1],"loss_changes":[6.829512E2,2.4164581E1,5.370094E2,1.718634E1,0E0,2.2624374E1,6.676117E2,0E0,0E0,0E0,0E0,0E0,0E0],"parents":[2147483647,0,0,1,1,2,2,3,3,5,5,6,6],"right_children":[2,4,6,8,-1,10,12,-1,-1,-1,-1,-1,-1],"split_conditions":[3E0,2.32E2,6E0,5.8E1,-2.3264756E-5,8.933441E0,2E0,7.171963E-4,-0E0,-1.6339516E-4,7.1890344E-4,-7.0769695E-4,6.22585E-4],"split_indices":[10,26,1,1,0,9,8,0,0,0,0,0,0],"split_type":[0,0,0,0,0,0,0,0,0,0,0,0,0],"sum_hessian":[1.8607484E3,5.152437E2,1.3455046E3,5.0699615E2,8.247549E0,2.3607796E2,1.1094268E3,5.0024893E2,6.747211E0,4.247164E0,2.318308E2,8.952338E2,2.1419289E2],"tree_param":{"num_deleted":"0","num_feature":"32","num_nodes":"13","size_leaf_vector":"1"}},{"base_weights":[-7.6173884E-3,1.0557977E0,-4.1274333E-1,1.0884815E0,-0E0,5.458776E-1,-7.2842586E-1,7.522293E-4,-0E0,1.1997539E-4,6.9936726E-4,5.131593E-4,-6.2408106E-4],"categories":[],"categories_nodes":[],"categories_segments":[],"categories_sizes":[],"default_left":[0,0,0,0,0,0,0,0,0,0,0,0,0],"id":47,"left_children":[1,3,5,7,-1,9,11,-1,-1,-1,-1,-1,-1],"loss_changes":[7.843496E2,2.203009E1,4.0469635E2,1.1342346E1,0E0,4.8311897E1,2.7824536E2,0E0,0E0,0E0,0E0,0E0,0E0],"parents":[2147483647,0,0,1,1,2,2,3,3,5,5,6,6],"right_children":[2,4,6,8,-1,10,12,-1,-1,-1,-1,-1,-1],"split_conditions":[3E0,2.31E2,2.1E2,8.9E-1,-0E0,3E1,4E0,7.522293E-4,-0E0,1.1997539E-4,6.9936726E-4,5.131593E-4,-6.2408106E-4],"split_indices":[10,26,7,12,0,6,2,0,0,0,0,0,0],"split_type":[0,0,0,0,0,0,0,0,0,0,0,0,0],"sum_hessian":[1.8297375E3,4.9924414E2,1.3304934E3,4.8824753E2,1.0996597E1,3.2356528E2,1.0069281E3,4.8624844E2,1.9990844E0,1.9191736E2,1.3164792E2,1.0722962E2,8.996985E2],"tree_param":{"num_deleted":"0","num_feature":"32","num_nodes":"13","size_leaf_vector":"1"}},{"base_weights":[2.2975964E-2,1.1877823E0,-2.0632844E-1,1.200843E0,-0E0,1.0094415E0,-3.9093396E-1,8.5828983E-4,1.534422E-4,7.2110305E-4,-0E0,-9.114201E-5,-3.8401643E-4],"categories":[],"categories_nodes":[],"categories_segments":[],"categories_sizes":[],"default_left":[0,0,0,0,0,0,0,0,0,0,0,0,0],"id":48,"left_children":[1,3,5,7,-1,9,11,-1,-1,-1,-1,-1,-1],"loss_changes":[5.0489267E2,7.9249573E0,3.439289E2,5.5681458E0,0E0,1.5734375E1,5.4402374E1,0E0,0E0,0E0,0E0,0E0,0E0],"parents":[2147483647,0,0,1,1,2,2,3,3,5,5,6,6],"right_children":[2,4,6,8,-1,10,12,-1,-1,-1,-1,-1,-1],"split_conditions":[6E0,1.1526165E-1,5E0,1.0839621E-1,-0E0,1.13464914E-1,1.02515176E-1,8.5828983E-4,1.534422E-4,7.2110305E-4,-0E0,-9.114201E-5,-3.8401643E-4],"split_indices":[1,17,2,23,0,18,23,0,0,0,0,0,0],"split_type":[0,0,0,0,0,0,0,0,0,0,0,0,0],"sum_hessian":[1.8609692E3,3.1075937E2,1.55021E3,3.095104E2,1.2489626E0,1.9843929E2,1.3517706E3,2.852798E2,2.4230595E1,1.9543977E2,2.999515E0,5.5813916E2,7.936315E2],"tree_param":{"num_deleted":"0","num_feature":"32","num_nodes":"13","size_leaf_vector":"1"}},{"base_weights":[4.0549845E-2,1.201246E0,-1.9781855E-1,1.261279E0,1.6366285E-1,8.756421E-1,-5.9086823E-1,-0E0,8.815471E-4,-0E0,4.3249966E-4,6.2151894E-4,-0E0,-6.255851E-4,5.66503E-4],"categories":[],"categories_nodes":[],"categories_segments":[],"categories_sizes":[],"default_left":[0,0,0,0,0,0,0,0,0,0,0,0,0,0,0],"id":49,"left_children":[1,3,5,7,9,11,13,-1,-1,-1,-1,-1,-1,-1,-1],"loss_changes":[5.342945E2,9.698486E0,6.626996E2,4.959778E0,5.2145596E0,1.3983917E1,5.3608154E2,0E0,0E0,0E0,0E0,0E0,0E0,0E0,0E0],"parents":[2147483647,0,0,1,1,2,2,3,3,4,4,5,5,6,6],"right_children":[2,4,6,8,10,12,14,-1,-1,-1,-1,-1,-1,-1,-1],"split_conditions":[6E0,6.914036E1,3E0,2E1,9E0,1.21346846E-1,2E0,-0E0,8.815471E-4,-0E0,4.3249966E-4,6.2151894E-4,-0E0,-6.255851E-4,5.66503E-4],"split_indices":[1,31,10,7,5,24,8,0,0,0,0,0,0,0,0],"split_type":[0,0,0,0,0,0,0,0,0,0,0,0,0,0,0],"sum_hessian":[1.9022135E3,3.2873944E2,1.5734741E3,3.0375632E2,2.498311E1,4.1629977E2,1.1571743E3,1.074186E1,2.9301447E2,1.1242372E1,1.374074E1,4.02306E2,1.3993789E1,9.462301E2,2.109442E2],"tree_param":{"num_deleted":"0","num_feature":"32","num_nodes":"15","size_leaf_vector":"1"}},{"base_weights":[9.013899E-3,1.1608315E0,-2.2197603E-1,1.196284E0,-0E0,-4.6027E-1,8.8999397E-1,8.29878E-4,-0E0,5.1827525E-4,-4.726492E-4,6.643796E-4,-0E0],"categories":[],"categories_nodes":[],"categories_segments":[],"categories_sizes":[],"default_left":[0,0,0,0,0,0,0,0,0,0,0,0,0],"id":50,"left_children":[1,3,5,7,-1,9,11,-1,-1,-1,-1,-1,-1],"loss_changes":[4.989262E2,1.3386261E1,4.038614E2,1.1206207E1,0E0,3.5881024E2,2.2725876E1,0E0,0E0,0E0,0E0,0E0,0E0],"parents":[2147483647,0,0,1,1,2,2,3,3,5,5,6,6],"right_children":[2,4,6,8,-1,10,12,-1,-1,-1,-1,-1,-1],"split_conditions":[6E0,6.2E1,2E0,8.9E-1,-0E0,7E0,3.5001682E1,8.29878E-4,-0E0,5.1827525E-4,-4.726492E-4,6.643796E-4,-0E0],"split_indices":[1,29,8,12,0,2,9,0,0,0,0,0,0],"split_type":[0,0,0,0,0,0,0,0,0,0,0,0,0],"sum_hessian":[1.8469485E3,3.1324655E2,1.533702E3,3.0425058E2,8.995948E0,1.2690447E3,2.6465732E2,3.0250183E2,1.7487496E0,1.9719229E2,1.0718524E3,2.454152E2,1.9242117E1],"tree_param":{"num_deleted":"0","num_feature":"32","num_nodes":"13","size_leaf_vector":"1"}},{"base_weights":[-1.2769711E-2,1.1470678E0,-2.6201728E-1,8.0058817E-4,-0E0,-5.2195716E-1,9.1225266E-1,5.63526E-4,-4.93846E-4,6.5170525E-4,-0E0],"categories":[],"categories_nodes":[],"categories_segments":[],"categories_sizes":[],"default_left":[0,0,0,0,0,0,0,0,0,0,0],"id":51,"left_children":[1,3,5,-1,-1,7,9,-1,-1,-1,-1],"loss_changes":[5.176495E2,1.1131226E1,4.5480005E2,0E0,0E0,3.3361005E2,1.4710999E1,0E0,0E0,0E0,0E0],"parents":[2147483647,0,0,1,1,2,2,5,5,6,6],"right_children":[2,4,6,-1,-1,8,10,-1,-1,-1,-1],"split_conditions":[6E0,3.6E1,2E0,8.0058817E-4,-0E0,5E0,7E-1,5.63526E-4,-4.93846E-4,6.5170525E-4,-0E0],"split_indices":[1,2,8,0,0,2,27,0,0,0,0],"split_type":[0,0,0,0,0,0,0,0,0,0,0],"sum_hessian":[1.811446E3,3.1448615E2,1.4969598E3,3.0923932E2,5.2468157E0,1.2313054E3,2.6565448E2,1.5470786E2,1.0765975E3,2.589066E2,6.7478933E0],"tree_param":{"num_deleted":"0","num_feature":"32","num_nodes":"11","size_leaf_vector":"1"}},{"base_weights":[-2.2298275E-2,9.268183E-1,-3.628611E-1,7.341752E-1,1.3435495E0,9.913647E-1,-6.734472E-1,6.5662095E-4,2.3307092E-4,-0E0,9.682195E-4,7.042242E-4,-0E0,-6.776961E-4,5.3733535E-4],"categories":[],"categories_nodes":[],"categories_segments":[],"categories_sizes":[],"default_left":[0,0,0,0,0,0,0,0,0,0,0,0,0,0,0],"id":52,"left_children":[1,3,5,7,9,11,13,-1,-1,-1,-1,-1,-1,-1,-1],"loss_changes":[5.8213544E2,2.1499268E1,5.6220526E2,2.013028E1,1.6778992E1,1.0186111E1,5.1228394E2,0E0,0E0,0E0,0E0,0E0,0E0,0E0,0E0],"parents":[2147483647,0,0,1,1,2,2,3,3,4,4,5,5,6,6],"right_children":[2,4,6,8,10,12,14,-1,-1,-1,-1,-1,-1,-1,-1],"split_conditions":[3E0,3.809524E-1,6E0,8.1E1,6.8500566E0,7E0,2E0,6.5662095E-4,2.3307092E-4,-0E0,9.682195E-4,7.042242E-4,-0E0,-6.776961E-4,5.3733535E-4],"split_indices":[10,27,1,26,4,27,8,0,0,0,0,0,0,0,0],"split_type":[0,0,0,0,0,0,0,0,0,0,0,0,0,0,0],"sum_hessian":[1.8119536E3,4.7223734E2,1.3397162E3,3.3708328E2,1.3515404E2,2.450448E2,1.0946714E3,2.006426E2,1.364407E2,5.496198E0,1.2965785E2,2.3605154E2,8.993258E0,9.029773E2,1.9169412E2],"tree_param":{"num_deleted":"0","num_feature":"32","num_nodes":"15","size_leaf_vector":"1"}},{"base_weights":[1.0342817E-1,1.200472E0,-1.1710738E-1,1.2283984E0,-0E0,1.1120731E0,-3.0497178E-1,8.513949E-4,-0E0,8.148606E-4,-0E0,8.65987E-5,-2.584903E-4],"categories":[],"categories_nodes":[],"categories_segments":[],"categories_sizes":[],"default_left":[0,0,0,0,0,0,0,0,0,0,0,0,0],"id":53,"left_children":[1,3,5,7,-1,9,11,-1,-1,-1,-1,-1,-1],"loss_changes":[4.6818262E2,1.3681335E1,3.5874728E2,1.1565002E1,0E0,2.2802917E1,4.5549866E1,0E0,0E0,0E0,0E0,0E0,0E0],"parents":[2147483647,0,0,1,1,2,2,3,3,5,5,6,6],"right_children":[2,4,6,8,-1,10,12,-1,-1,-1,-1,-1,-1],"split_conditions":[6E0,9.918402E1,5E0,1.5875061E2,-0E0,6.952135E1,2.5E2,8.513949E-4,-0E0,8.148606E-4,-0E0,8.65987E-5,-2.584903E-4],"split_indices":[1,31,2,25,0,31,7,0,0,0,0,0,0],"split_type":[0,0,0,0,0,0,0,0,0,0,0,0,0],"sum_hessian":[1.9001422E3,3.2296497E2,1.5771772E3,3.17469E2,5.4959564E0,2.0317514E2,1.3740021E3,3.157202E2,1.748785E0,1.9242647E2,1.0748678E1,1.8495554E2,1.1890466E3],"tree_param":{"num_deleted":"0","num_feature":"32","num_nodes":"13","size_leaf_vector":"1"}},{"base_weights":[-3.0599166E-2,9.820361E-1,-3.7468985E-1,1.0205921E0,-9.08382E-5,1.0103912E0,-7.1675795E-1,-0E0,7.2077406E-4,7.5324165E-4,9.323965E-5,-7.26882E-4,5.116724E-4],"categories":[],"categories_nodes":[],"categories_segments":[],"categories_sizes":[],"default_left":[0,0,0,0,0,0,0,0,0,0,0,0,0],"id":54,"left_children":[1,3,5,7,-1,9,11,-1,-1,-1,-1,-1,-1],"loss_changes":[6.3327686E2,2.6482147E1,6.484204E2,1.7097565E1,0E0,1.2226288E1,5.6592926E2,0E0,0E0,0E0,0E0,0E0,0E0],"parents":[2147483647,0,0,1,1,2,2,3,3,5,5,6,6],"right_children":[2,4,6,8,-1,10,12,-1,-1,-1,-1,-1,-1],"split_conditions":[3E0,2.31E2,6E0,5.4021916E0,-9.08382E-5,4.9684822E1,2E0,-0E0,7.2077406E-4,7.5324165E-4,9.323965E-5,-7.26882E-4,5.116724E-4],"split_indices":[10,26,1,4,0,31,8,0,0,0,0,0,0],"split_type":[0,0,0,0,0,0,0,0,0,0,0,0,0],"sum_hessian":[1.8284237E3,4.5775098E2,1.3706727E3,4.4900293E2,8.748047E0,2.667587E2,1.1039141E3,1.3743128E1,4.3525983E2,2.3328429E2,3.3474422E1,8.967265E2,2.0718748E2],"tree_param":{"num_deleted":"0","num_feature":"32","num_nodes":"13","size_leaf_vector":"1"}},{"base_weights":[5.3677177E-3,9.6711445E-1,-3.229198E-1,1.0986952E0,4.6939397E-1,1.0067809E0,-6.416824E-1,-0E0,7.632885E-4,-1.2374853E-4,4.966393E-4,-0E0,7.2239357E-4,6.5748283E-4,-6.29728E-4],"categories":[],"categories_nodes":[],"categories_segments":[],"categories_sizes":[],"default_left":[0,0,0,0,0,0,0,0,0,0,0,0,0,0,0],"id":55,"left_children":[1,3,5,7,9,11,13,-1,-1,-1,-1,-1,-1,-1,-1],"loss_changes":[5.8413696E2,1.8740723E1,5.7529175E2,8.833862E0,2.30605E1,1.60513E1,4.9698914E2,0E0,0E0,0E0,0E0,0E0,0E0,0E0,0E0],"parents":[2147483647,0,0,1,1,2,2,3,3,4,4,5,5,6,6],"right_children":[2,4,6,8,10,12,14,-1,-1,-1,-1,-1,-1,-1,-1],"split_conditions":[3E0,2.5E1,6E0,9.433529E-2,-3E0,5E-2,5E0,-0E0,7.632885E-4,-1.2374853E-4,4.966393E-4,-0E0,7.2239357E-4,6.5748283E-4,-6.29728E-4],"split_indices":[10,2,1,21,14,13,2,0,0,0,0,0,0,0,0],"split_type":[0,0,0,0,0,0,0,0,0,0,0,0,0,0,0],"sum_hessian":[1.8329027E3,4.717264E2,1.3611764E3,3.6027887E2,1.1144753E2,2.5826544E2,1.1029109E3,4.9976363E0,3.5528122E2,2.3491083E1,8.795645E1,9.990308E0,2.4827515E2,1.5971437E2,9.4319653E2],"tree_param":{"num_deleted":"0","num_feature":"32","num_nodes":"15","size_leaf_vector":"1"}},{"base_weights":[-0E0,9.2641735E-1,-3.3595538E-1,9.5102763E-1,-0E0,-5.556932E-1,7.6545E-1,6.668179E-4,-0E0,3.7266972E-4,-6.0670264E-4,-5.6524434E-5,6.4714317E-4],"categories":[],"categories_nodes":[],"categories_segments":[],"categories_sizes":[],"default_left":[0,0,0,0,0,0,0,0,0,0,0,0,0],"id":56,"left_children":[1,3,5,7,-1,9,11,-1,-1,-1,-1,-1,-1],"loss_changes":[5.690545E2,1.6090729E1,3.261184E2,1.3747253E1,0E0,4.1821506E2,4.0448517E1,0E0,0E0,0E0,0E0,0E0,0E0],"parents":[2147483647,0,0,1,1,2,2,3,3,5,5,6,6],"right_children":[2,4,6,8,-1,10,12,-1,-1,-1,-1,-1,-1],"split_conditions":[3E0,1.1E1,2E0,2.32E2,-0E0,2E2,9.683805E-2,6.668179E-4,-0E0,3.7266972E-4,-6.0670264E-4,-5.6524434E-5,6.4714317E-4],"split_indices":[10,28,8,26,0,7,16,0,0,0,0,0,0],"split_type":[0,0,0,0,0,0,0,0,0,0,0,0,0],"sum_hessian":[1.8354116E3,4.8421774E2,1.3511938E3,4.7722073E2,6.9970236E0,1.1325199E3,2.1867401E2,4.672233E2,9.997432E0,2.573217E2,8.751981E2,3.1488657E1,1.8718535E2],"tree_param":{"num_deleted":"0","num_feature":"32","num_nodes":"13","size_leaf_vector":"1"}},{"base_weights":[4.4836655E-2,1.0134922E0,-3.0108202E-1,1.0389049E0,-0E0,1.0883056E0,-6.3866943E-1,7.273158E-4,-0E0,7.8143715E-4,-0E0,3.2471892E-4,-5.678553E-4],"categories":[],"categories_nodes":[],"categories_segments":[],"categories_sizes":[],"default_left":[0,0,0,0,0,0,0,0,0,0,0,0,0],"id":57,"left_children":[1,3,5,7,-1,9,11,-1,-1,-1,-1,-1,-1],"loss_changes":[6.242065E2,1.8091797E1,6.330808E2,1.2010193E1,0E0,1.5502197E1,2.3824591E2,0E0,0E0,0E0,0E0,0E0,0E0],"parents":[2147483647,0,0,1,1,2,2,3,3,5,5,6,6],"right_children":[2,4,6,8,-1,10,12,-1,-1,-1,-1,-1,-1],"split_conditions":[3E0,2.32E2,6E0,6.6E2,-0E0,1.53E3,1.4E2,7.273158E-4,-0E0,7.8143715E-4,-0E0,3.2471892E-4,-5.678553E-4],"split_indices":[10,26,1,29,0,30,30,0,0,0,0,0,0],"split_type":[0,0,0,0,0,0,0,0,0,0,0,0,0],"sum_hessian":[1.845102E3,4.9069165E2,1.3544104E3,4.8369354E2,6.998122E0,2.6000275E2,1.0944076E3,4.7094864E2,1.2744912E1,2.4701227E2,1.299049E1,1.5547087E2,9.3893677E2],"tree_param":{"num_deleted":"0","num_feature":"32","num_nodes":"13","size_leaf_vector":"1"}},{"base_weights":[-5.3824857E-2,-2.902028E-1,8.115078E-1,-4.9332145E-1,8.163611E-1,9.532095E-1,-4.1833562E-1,5.2613474E-4,-4.5565562E-4,6.668291E-4,-0E0,6.0017905E-5,7.0898165E-4,-7.9324853E-4,1.8428653E-4],"categories":[],"categories_nodes":[],"categories_segments":[],"categories_sizes":[],"default_left":[0,0,0,0,0,0,0,0,0,0,0,0,0,0,0],"id":58,"left_children":[1,3,5,7,9,11,13,-1,-1,-1,-1,-1,-1,-1,-1],"loss_changes":[3.600038E2,3.1354718E2,6.973242E1,2.6164444E2,3.302948E1,1.660019E1,2.4347881E1,0E0,0E0,0E0,0E0,0E0,0E0,0E0,0E0],"parents":[2147483647,0,0,1,1,2,2,3,3,4,4,5,5,6,6],"right_children":[2,4,6,8,10,12,14,-1,-1,-1,-1,-1,-1,-1,-1],"split_conditions":[6E-1,2E0,3.4E2,5E0,3.5714285E2,9.5292225E0,1.0572484E-1,5.2613474E-4,-4.5565562E-4,6.668291E-4,-0E0,6.0017905E-5,7.0898165E-4,-7.9324853E-4,1.8428653E-4],"split_indices":[27,8,7,2,29,31,20,0,0,0,0,0,0,0,0],"split_type":[0,0,0,0,0,0,0,0,0,0,0,0,0,0,0],"sum_hessian":[1.7768866E3,1.402942E3,3.7394458E2,1.1915264E3,2.1141571E2,3.4095334E2,3.2991238E1,1.384605E2,1.0530659E3,1.8217319E2,2.9242521E1,3.846767E1,3.0248566E2,2.074664E1,1.2244599E1],"tree_param":{"num_deleted":"0","num_feature":"32","num_nodes":"15","size_leaf_vector":"1"}},{"base_weights":[-0E0,9.620691E-1,-3.5049728E-1,1.0035083E0,-0E0,1.035111E0,-6.6588145E-1,5.9614977E-5,7.2289194E-4,7.4991724E-4,-0E0,-6.6749426E-4,5.370642E-4],"categories":[],"categories_nodes":[],"categories_segments":[],"categories_sizes":[],"default_left":[0,0,0,0,0,0,0,0,0,0,0,0,0],"id":59,"left_children":[1,3,5,7,-1,9,11,-1,-1,-1,-1,-1,-1],"loss_changes":[6.188367E2,2.4163574E1,5.9188904E2,1.51223755E1,0E0,1.6980835E1,5.051103E2,0E0,0E0,0E0,0E0,0E0,0E0],"parents":[2147483647,0,0,1,1,2,2,3,3,5,5,6,6],"right_children":[2,4,6,8,-1,10,12,-1,-1,-1,-1,-1,-1],"split_conditions":[3E0,2.7E1,6E0,7.017544E-2,-0E0,3.3E1,2E0,5.9614977E-5,7.2289194E-4,7.4991724E-4,-0E0,-6.6749426E-4,5.370642E-4],"split_indices":[10,5,1,27,0,2,8,0,0,0,0,0,0],"split_type":[0,0,0,0,0,0,0,0,0,0,0,0,0],"sum_hessian":[1.8453672E3,4.8719818E2,1.358169E3,4.7170587E2,1.5492326E1,2.470101E2,1.1111589E3,3.4484657E1,4.3722122E2,2.3352138E2,1.348871E1,9.1946594E2,1.9169298E2],"tree_param":{"num_deleted":"0","num_feature":"32","num_nodes":"13","size_leaf_vector":"1"}},{"base_weights":[1.9033128E-2,1.0249141E0,-3.369065E-1,1.0540509E0,-0E0,-5.8037436E-1,8.683032E-1,7.442929E-4,-0E0,4.3571217E-4,-6.104868E-4,-0E0,6.3218264E-4],"categories":[],"categories_nodes":[],"categories_segments":[],"categories_sizes":[],"default_left":[0,0,0,0,0,0,0,0,0,0,0,0,0],"id":60,"left_children":[1,3,5,7,-1,9,11,-1,-1,-1,-1,-1,-1],"loss_changes":[6.766407E2,1.8364136E1,4.032565E2,2.3741638E1,0E0,4.4303882E2,1.1776245E1,0E0,0E0,0E0,0E0,0E0,0E0],"parents":[2147483647,0,0,1,1,2,2,3,3,5,5,6,6],"right_children":[2,4,6,8,-1,10,12,-1,-1,-1,-1,-1,-1],"split_conditions":[3E0,2.31E2,2E0,1.0857964E-1,-0E0,1.6E2,-2.7E1,7.442929E-4,-0E0,4.3571217E-4,-6.104868E-4,-0E0,6.3218264E-4],"split_indices":[10,26,8,23,0,7,14,0,0,0,0,0,0],"split_type":[0,0,0,0,0,0,0,0,0,0,0,0,0],"sum_hessian":[1.8735782E3,4.9468683E2,1.3788914E3,4.841905E2,1.0496335E1,1.1527349E3,2.2615657E2,4.7294757E2,1.1242929E1,2.3079663E2,9.2193823E2,1.3494417E1,2.1266216E2],"tree_param":{"num_deleted":"0","num_feature":"32","num_nodes":"13","size_leaf_vector":"1"}},{"base_weights":[3.1589914E-2,1.0521207E0,-3.4689736E-1,4.2411104E-2,1.110007E0,1.0436883E0,-6.642804E-1,-4.248152E-4,4.8130268E-4,-0E0,7.692895E-4,7.6515693E-4,-0E0,-6.781713E-4,5.359371E-4],"categories":[],"categories_nodes":[],"categories_segments":[],"categories_sizes":[],"default_left":[0,0,0,0,0,0,0,0,0,0,0,0,0,0,0],"id":61,"left_children":[1,3,5,7,9,11,13,-1,-1,-1,-1,-1,-1,-1,-1],"loss_changes":[7.4030774E2,2.175476E1,6.0819666E2,1.6998013E1,1.4508606E1,2.7187744E1,5.408148E2,0E0,0E0,0E0,0E0,0E0,0E0,0E0,0E0],"parents":[2147483647,0,0,1,1,2,2,3,3,4,4,5,5,6,6],"right_children":[2,4,6,8,10,12,14,-1,-1,-1,-1,-1,-1,-1,-1],"split_conditions":[3E0,6.451613E-2,6E0,1E1,-6.5E1,1.0428281E2,2E0,-4.248152E-4,4.8130268E-4,-0E0,7.692895E-4,7.6515693E-4,-0E0,-6.781713E-4,5.359371E-4],"split_indices":[10,27,1,5,14,25,8,0,0,0,0,0,0,0,0],"split_type":[0,0,0,0,0,0,0,0,0,0,0,0,0,0,0],"sum_hessian":[1.9010444E3,5.1915735E2,1.3818871E3,3.5233727E1,4.839236E2,2.5199423E2,1.1298928E3,1.1993612E1,2.3240114E1,2.4991574E0,4.8142444E2,2.402554E2,1.1738834E1,9.254612E2,2.0443169E2],"tree_param":{"num_deleted":"0","num_feature":"32","num_nodes":"15","size_leaf_vector":"1"}},{"base_weights":[-5.28655E-3,-2.4165618E-1,8.8104504E-1,-4.4428864E-1,8.2239026E-1,9.6627957E-1,-0E0,5.2910653E-4,-3.8836375E-4,5.9716724E-4,-9.447786E-5,-0E0,6.978649E-4,-1.6095086E-4,4.6271153E-4],"categories":[],"categories_nodes":[],"categories_segments":[],"categories_sizes":[],"default_left":[0,0,0,0,0,0,0,0,0,0,0,0,0,0,0],"id":62,"left_children":[1,3,5,7,9,11,13,-1,-1,-1,-1,-1,-1,-1,-1],"loss_changes":[3.749172E2,3.074635E2,2.6598114E1,1.8285907E2,1.6806091E1,1.5863434E1,6.576555E0,0E0,0E0,0E0,0E0,0E0,0E0,0E0,0E0],"parents":[2147483647,0,0,1,1,2,2,3,3,4,4,5,5,6,6],"right_children":[2,4,6,8,10,12,14,-1,-1,-1,-1,-1,-1,-1,-1],"split_conditions":[6.666667E-1,2E0,3.1E2,1E2,1.0731023E-1,1E0,2E0,5.2910653E-4,-3.8836375E-4,5.9716724E-4,-9.447786E-5,-0E0,6.978649E-4,-1.6095086E-4,4.6271153E-4],"split_indices":[27,8,7,30,20,5,8,0,0,0,0,0,0,0,0],"split_type":[0,0,0,0,0,0,0,0,0,0,0,0,0,0,0],"sum_hessian":[1.8103253E3,1.4364072E3,3.7391806E2,1.2130042E3,2.234031E2,3.3917984E2,3.473823E1,1.0621656E2,1.1067876E3,2.194047E2,3.9984167E0,2.0730623E1,3.1844922E2,2.4492865E1,1.0245368E1],"tree_param":{"num_deleted":"0","num_feature":"32","num_nodes":"15","size_leaf_vector":"1"}},{"base_weights":[-1.0178431E-3,9.6811223E-1,-3.3156535E-1,9.928057E-1,-0E0,1.0872505E0,-6.8637514E-1,6.920958E-4,-0E0,7.734369E-4,-0E0,-7.4099615E-4,5.710672E-4],"categories":[],"categories_nodes":[],"categories_segments":[],"categories_sizes":[],"default_left":[0,0,0,0,0,0,0,0,0,0,0,0,0],"id":63,"left_children":[1,3,5,7,-1,9,11,-1,-1,-1,-1,-1,-1],"loss_changes":[5.8556934E2,1.5764801E1,6.9237854E2,1.2589264E1,0E0,1.5096832E1,6.753882E2,0E0,0E0,0E0,0E0,0E0,0E0],"parents":[2147483647,0,0,1,1,2,2,3,3,5,5,6,6],"right_children":[2,4,6,8,-1,10,12,-1,-1,-1,-1,-1,-1],"split_conditions":[3E0,2.32E2,6E0,4.459494E1,-0E0,1.98E2,2E0,6.920958E-4,-0E0,7.734369E-4,-0E0,-7.4099615E-4,5.710672E-4],"split_indices":[10,26,1,9,0,26,8,0,0,0,0,0,0],"split_type":[0,0,0,0,0,0,0,0,0,0,0,0,0],"sum_hessian":[1.8407693E3,4.6193085E2,1.3788385E3,4.5518292E2,6.7479243E0,2.712128E2,1.1076256E3,4.49186E2,5.9969277E0,2.6172052E2,9.49228E0,8.819598E2,2.2566586E2],"tree_param":{"num_deleted":"0","num_feature":"32","num_nodes":"13","size_leaf_vector":"1"}},{"base_weights":[-7.3283106E-2,9.0606767E-1,-4.003826E-1,9.368099E-1,-2.153421E-4,9.8749584E-1,-7.4026835E-1,-0E0,6.757044E-4,7.335716E-4,-0E0,3.8946528E-4,-6.412076E-4],"categories":[],"categories_nodes":[],"categories_segments":[],"categories_sizes":[],"default_left":[0,0,0,0,0,0,0,0,0,0,0,0,0],"id":64,"left_children":[1,3,5,7,-1,9,11,-1,-1,-1,-1,-1,-1],"loss_changes":[5.616185E2,2.1312012E1,6.2561804E2,1.6004578E1,0E0,2.7769455E1,2.8220587E2,0E0,0E0,0E0,0E0,0E0,0E0],"parents":[2147483647,0,0,1,1,2,2,3,3,5,5,6,6],"right_children":[2,4,6,8,-1,10,12,-1,-1,-1,-1,-1,-1],"split_conditions":[3E0,1.21346846E-1,6E0,6.451613E-2,-2.153421E-4,1.41E3,6E0,-0E0,6.757044E-4,7.335716E-4,-0E0,3.8946528E-4,-6.412076E-4],"split_indices":[10,24,1,27,0,30,2,0,0,0,0,0,0],"split_type":[0,0,0,0,0,0,0,0,0,0,0,0,0],"sum_hessian":[1.7628153E3,4.3520526E2,1.32761E3,4.3070743E2,4.497824E0,2.5647314E2,1.0711368E3,2.8236567E1,4.024709E2,2.4073552E2,1.5737637E1,1.3572229E2,9.3541455E2],"tree_param":{"num_deleted":"0","num_feature":"32","num_nodes":"13","size_leaf_vector":"1"}},{"base_weights":[-1.28193E-2,1.0756023E0,-2.2443338E-1,1.1622488E0,-0E0,1.0544488E0,-4.171416E-1,8.14901E-4,-0E0,-0E0,7.5800554E-4,-4.5751536E-4,5.4132036E-4],"categories":[],"categories_nodes":[],"categories_segments":[],"categories_sizes":[],"default_left":[0,0,0,0,0,0,0,0,0,0,0,0,0],"id":65,"left_children":[1,3,5,7,-1,9,11,-1,-1,-1,-1,-1,-1],"loss_changes":[4.0848578E2,2.2669098E1,3.6871506E2,1.1636108E1,0E0,1.5472778E1,4.0348898E2,0E0,0E0,0E0,0E0,0E0,0E0],"parents":[2147483647,0,0,1,1,2,2,3,3,5,5,6,6],"right_children":[2,4,6,8,-1,10,12,-1,-1,-1,-1,-1,-1],"split_conditions":[6E0,1.6E2,5E0,2.722238E1,-0E0,2E1,2E0,8.14901E-4,-0E0,-0E0,7.5800554E-4,-4.5751536E-4,5.4132036E-4],"split_indices":[1,26,2,4,0,30,8,0,0,0,0,0,0],"split_type":[0,0,0,0,0,0,0,0,0,0,0,0,0],"sum_hessian":[1.7990481E3,2.8643594E2,1.512612E3,2.61958E2,2.4477917E1,1.9242316E2,1.320189E3,2.5671396E2,5.2440515E0,6.246305E0,1.8617686E2,1.097531E3,2.2265797E2],"tree_param":{"num_deleted":"0","num_feature":"32","num_nodes":"13","size_leaf_vector":"1"}},{"base_weights":[-3.10271E-2,9.0762734E-1,-3.620473E-1,-1.5577814E-4,9.348999E-1,-6.3331556E-1,9.433243E-1,7.467297E-4,3.62495E-4,5.558522E-4,-5.840303E-4,6.835265E-4,-0E0],"categories":[],"categories_nodes":[],"categories_segments":[],"categories_sizes":[],"default_left":[0,0,0,0,0,0,0,0,0,0,0,0,0],"id":66,"left_children":[1,3,5,-1,7,9,11,-1,-1,-1,-1,-1,-1],"loss_changes":[5.549254E2,1.983432E1,4.7131415E2,0E0,1.6677063E1,3.5764615E2,1.7915085E1,0E0,0E0,0E0,0E0,0E0,0E0],"parents":[2147483647,0,0,1,1,2,2,4,4,5,5,6,6],"right_children":[2,4,6,-1,8,10,12,-1,-1,-1,-1,-1,-1],"split_conditions":[3E0,3.7037037E-2,1E0,-1.5577814E-4,2.3E1,5E0,3.1E2,7.467297E-4,3.62495E-4,5.558522E-4,-5.840303E-4,6.835265E-4,-0E0],"split_indices":[10,27,27,0,2,2,7,0,0,0,0,0,0],"split_type":[0,0,0,0,0,0,0,0,0,0,0,0,0],"sum_hessian":[1.7970175E3,4.6217313E2,1.3348442E3,4.2484727E0,4.5792465E2,1.1103378E3,2.2450645E2,3.1451077E2,1.4341385E2,1.4271199E2,9.6762585E2,2.1725934E2,7.24712E0],"tree_param":{"num_deleted":"0","num_feature":"32","num_nodes":"13","size_leaf_vector":"1"}},{"base_weights":[-7.21718E-2,1.1547095E0,-3.195745E-1,1.2340981E0,-0E0,7.8155553E-1,-7.193289E-1,8.640381E-4,-0E0,-0E0,5.637524E-4,-7.020217E-4,4.815973E-4],"categories":[],"categories_nodes":[],"categories_segments":[],"categories_sizes":[],"default_left":[0,0,0,0,0,0,0,0,0,0,0,0,0],"id":67,"left_children":[1,3,5,7,-1,9,11,-1,-1,-1,-1,-1,-1],"loss_changes":[5.34969E2,2.4213593E1,6.553641E2,1.2743286E1,0E0,1.92677E1,4.8546356E2,0E0,0E0,0E0,0E0,0E0,0E0],"parents":[2147483647,0,0,1,1,2,2,3,3,5,5,6,6],"right_children":[2,4,6,8,-1,10,12,-1,-1,-1,-1,-1,-1],"split_conditions":[6E0,1.68E2,3E0,3.5E1,-0E0,9.593383E-2,2E0,8.640381E-4,-0E0,-0E0,5.637524E-4,-7.020217E-4,4.815973E-4],"split_indices":[1,26,10,2,0,20,8,0,0,0,0,0,0],"split_type":[0,0,0,0,0,0,0,0,0,0,0,0,0],"sum_hessian":[1.7807875E3,2.9316016E2,1.4876273E3,2.7242993E2,2.0730225E1,3.9099664E2,1.0966306E3,2.6718497E2,5.2449617E0,1.2243147E1,3.787535E2,9.0594464E2,1.9068602E2],"tree_param":{"num_deleted":"0","num_feature":"32","num_nodes":"13","size_leaf_vector":"1"}},{"base_weights":[3.414186E-2,9.971199E-1,-3.0058566E-1,1.0249257E0,-0E0,-5.5452514E-1,9.027511E-1,-0E0,7.0780824E-4,-5.631742E-4,5.485288E-4,7.485973E-4,1.4475157E-4],"categories":[],"categories_nodes":[],"categories_segments":[],"categories_sizes":[],"default_left":[0,0,0,0,0,0,0,0,0,0,0,0,0],"id":68,"left_children":[1,3,5,7,-1,9,11,-1,-1,-1,-1,-1,-1],"loss_changes":[6.039849E2,1.6502686E1,4.1740103E2,9.245331E0,0E0,4.1847498E2,2.1312332E1,0E0,0E0,0E0,0E0,0E0,0E0],"parents":[2147483647,0,0,1,1,2,2,3,3,5,5,6,6],"right_children":[2,4,6,8,-1,10,12,-1,-1,-1,-1,-1,-1],"split_conditions":[3E0,1.0857964E-1,1E0,8.138717E0,-0E0,2E0,2.4E1,-0E0,7.0780824E-4,-5.631742E-4,5.485288E-4,7.485973E-4,1.4475157E-4],"split_indices":[10,23,27,31,0,8,2,0,0,0,0,0,0],"split_type":[0,0,0,0,0,0,0,0,0,0,0,0,0],"sum_hessian":[1.8557219E3,4.8390158E2,1.3718204E3,4.7365787E2,1.0243734E1,1.1383385E3,2.3348189E2,1.7489874E0,4.7190887E2,9.5440906E2,1.8392944E2,1.735424E2,5.993948E1],"tree_param":{"num_deleted":"0","num_feature":"32","num_nodes":"13","size_leaf_vector":"1"}},{"base_weights":[-6.7107887E-3,9.437338E-1,-3.3784327E-1,2.6224893E-1,1.0008441E0,1.1207784E0,-6.902816E-1,-4.724882E-4,4.035714E-4,6.961436E-4,-0E0,7.902268E-4,-0E0,5.202576E-4,-6.2497647E-4],"categories":[],"categories_nodes":[],"categories_segments":[],"categories_sizes":[],"default_left":[0,0,0,0,0,0,0,0,0,0,0,0,0,0,0],"id":69,"left_children":[1,3,5,7,9,11,13,-1,-1,-1,-1,-1,-1,-1,-1],"loss_changes":[5.816367E2,8.813477E0,7.106057E2,1.4772434E1,1.018161E1,1.7926208E1,3.6792682E2,0E0,0E0,0E0,0E0,0E0,0E0,0E0,0E0],"parents":[2147483647,0,0,1,1,2,2,3,3,4,4,5,5,6,6],"right_children":[2,4,6,8,10,12,14,-1,-1,-1,-1,-1,-1,-1,-1],"split_conditions":[3E0,-2.7E1,6E0,9.9928096E-2,9.9364525E1,3.9E1,5E0,-4.724882E-4,4.035714E-4,6.961436E-4,-0E0,7.902268E-4,-0E0,5.202576E-4,-6.2497647E-4],"split_indices":[10,14,1,15,31,2,2,0,0,0,0,0,0,0,0],"split_type":[0,0,0,0,0,0,0,0,0,0,0,0,0,0,0],"sum_hessian":[1.8604447E3,4.7439838E2,1.3860464E3,4.721849E1,4.271799E2,2.6518423E2,1.120862E3,5.995984E0,4.1222507E1,4.2168314E2,5.4967403E0,2.6218652E2,2.9977229E0,1.454638E2,9.753983E2],"tree_param":{"num_deleted":"0","num_feature":"32","num_nodes":"15","size_leaf_vector":"1"}},{"base_weights":[-2.2566402E-2,9.233086E-1,-3.5869336E-1,9.537232E-1,-0E0,1.0064133E0,-6.6568965E-1,6.615877E-4,-0E0,-0E0,7.16071E-4,6.091391E-4,-6.3553615E-4],"categories":[],"categories_nodes":[],"categories_segments":[],"categories_sizes":[],"default_left":[0,0,0,0,0,0,0,0,0,0,0,0,0],"id":70,"left_children":[1,3,5,7,-1,9,11,-1,-1,-1,-1,-1,-1],"loss_changes":[5.683895E2,1.6852173E1,5.5742633E2,1.0942139E1,0E0,1.7216843E1,4.5256143E2,0E0,0E0,0E0,0E0,0E0,0E0],"parents":[2147483647,0,0,1,1,2,2,3,3,5,5,6,6],"right_children":[2,4,6,8,-1,10,12,-1,-1,-1,-1,-1,-1],"split_conditions":[3E0,2.3E2,6E0,4.7790867E1,-0E0,-4.8E1,5E0,6.615877E-4,-0E0,-0E0,7.16071E-4,6.091391E-4,-6.3553615E-4],"split_indices":[10,26,1,9,0,14,2,0,0,0,0,0,0],"split_type":[0,0,0,0,0,0,0,0,0,0,0,0,0],"sum_hessian":[1.7989708E3,4.653912E2,1.3335796E3,4.5464597E2,1.0745247E1,2.3996222E2,1.0936174E3,4.5239737E2,2.2485833E0,3.2465215E0,2.367157E2,1.544692E2,9.391482E2],"tree_param":{"num_deleted":"0","num_feature":"32","num_nodes":"13","size_leaf_vector":"1"}},{"base_weights":[-0E0,1.0700815E0,-2.0003591E-1,1.1109973E0,-3.683972E-5,9.5544666E-1,-3.6283168E-1,7.792482E-4,-0E0,-0E0,7.033378E-4,-2.9158875E-4,3.8683196E-4],"categories":[],"categories_nodes":[],"categories_segments":[],"categories_sizes":[],"default_left":[0,0,0,0,0,0,0,0,0,0,0,0,0],"id":71,"left_children":[1,3,5,7,-1,9,11,-1,-1,-1,-1,-1,-1],"loss_changes":[3.950735E2,2.1303833E1,2.8999017E2,1.2141541E1,0E0,1.973114E1,8.116907E1,0E0,0E0,0E0,0E0,0E0,0E0],"parents":[2147483647,0,0,1,1,2,2,3,3,5,5,6,6],"right_children":[2,4,6,8,-1,10,12,-1,-1,-1,-1,-1,-1],"split_conditions":[6E0,9.891389E1,5E0,4E1,-3.683972E-5,2.2E2,3.2E1,7.792482E-4,-0E0,-0E0,7.033378E-4,-2.9158875E-4,3.8683196E-4],"split_indices":[1,31,2,2,0,7,5,0,0,0,0,0,0],"split_type":[0,0,0,0,0,0,0,0,0,0,0,0,0],"sum_hessian":[1.8516774E3,2.8939124E2,1.5622861E3,2.8564453E2,3.7467217E0,1.8666615E2,1.37562E3,2.801486E2,5.4959207E0,7.498109E0,1.7916805E2,1.2948914E3,8.0728584E1],"tree_param":{"num_deleted":"0","num_feature":"32","num_nodes":"13","size_leaf_vector":"1"}},{"base_weights":[-3.8972564E-2,9.7576636E-1,-4.0579876E-1,1.0057479E0,-0E0,-6.606512E-1,8.904268E-1,-0E0,6.972122E-4,-6.638523E-4,5.0969154E-4,6.4833515E-4,-1.4117491E-4],"categories":[],"categories_nodes":[],"categories_segments":[],"categories_sizes":[],"default_left":[0,0,0,0,0,0,0,0,0,0,0,0,0],"id":72,"left_children":[1,3,5,7,-1,9,11,-1,-1,-1,-1,-1,-1],"loss_changes":[6.666033E2,1.4459869E1,4.3792114E2,1.16605835E1,0E0,4.9118793E2,1.9540741E1,0E0,0E0,0E0,0E0,0E0,0E0],"parents":[2147483647,0,0,1,1,2,2,3,3,5,5,6,6],"right_children":[2,4,6,8,-1,10,12,-1,-1,-1,-1,-1,-1],"split_conditions":[3E0,5.875E2,1E0,1.3E-1,-0E0,2E0,4.4E1,-0E0,6.972122E-4,-6.638523E-4,5.0969154E-4,6.4833515E-4,-1.4117491E-4],"split_indices":[10,29,27,12,0,8,29,0,0,0,0,0,0],"split_type":[0,0,0,0,0,0,0,0,0,0,0,0,0],"sum_hessian":[1.8001871E3,4.7213403E2,1.3280531E3,4.5864108E2,1.3492926E1,1.1150664E3,2.1298672E2,2.2485175E0,4.5639258E2,9.176421E2,1.9742436E2,2.0873767E2,4.249055E0],"tree_param":{"num_deleted":"0","num_feature":"32","num_nodes":"13","size_leaf_vector":"1"}},{"base_weights":[-7.820355E-2,1.068764E0,-3.1148708E-1,1.1443331E0,-0E0,5.9723413E-1,-4.4149467E-1,8.0978073E-4,-0E0,-5.3976267E-4,3.3304634E-4,-3.3083075E-4,4.8838445E-4,1.5947541E-4,-3.3612535E-4],"categories":[],"categories_nodes":[],"categories_segments":[],"categories_sizes":[],"default_left":[0,0,0,0,0,0,0,0,0,0,0,0,0,0,0],"id":73,"left_children":[1,3,5,7,9,11,13,-1,-1,-1,-1,-1,-1,-1,-1],"loss_changes":[4.716732E2,2.2054047E1,1.7484381E2,1.7675964E1,8.3615E0,2.4929752E1,4.6778122E1,0E0,0E0,0E0,0E0,0E0,0E0,0E0,0E0],"parents":[2147483647,0,0,1,1,2,2,3,3,4,4,5,5,6,6],"right_children":[2,4,6,8,10,12,14,-1,-1,-1,-1,-1,-1,-1,-1],"split_conditions":[6E0,1.7E2,1.4E1,8.6E-1,4E-2,4.222222E1,9.4631806E-2,8.0978073E-4,-0E0,-5.3976267E-4,3.3304634E-4,-3.3083075E-4,4.8838445E-4,1.5947541E-4,-3.3612535E-4],"split_indices":[1,26,26,12,28,29,23,0,0,0,0,0,0,0,0],"split_type":[0,0,0,0,0,0,0,0,0,0,0,0,0,0,0],"sum_hessian":[1.7816897E3,2.9512048E2,1.4865692E3,2.7414325E2,2.0977226E1,1.7842491E2,1.3081443E3,2.679015E2,6.241761E0,6.4941444E0,1.4483083E1,1.0996933E1,1.6742798E2,8.0727974E1,1.2274163E3],"tree_param":{"num_deleted":"0","num_feature":"32","num_nodes":"15","size_leaf_vector":"1"}},{"base_weights":[1.2819377E-2,9.624565E-1,-3.1567496E-1,1.0160946E0,-0E0,1.0448533E0,-6.63781E-1,7.14173E-4,-0E0,-0E0,7.4192113E-4,-6.4713246E-4,5.0013105E-4],"categories":[],"categories_nodes":[],"categories_segments":[],"categories_sizes":[],"default_left":[0,0,0,0,0,0,0,0,0,0,0,0,0],"id":74,"left_children":[1,3,5,7,-1,9,11,-1,-1,-1,-1,-1,-1],"loss_changes":[5.886605E2,2.767398E1,6.536724E2,1.7014862E1,0E0,1.6871307E1,4.409332E2,0E0,0E0,0E0,0E0,0E0,0E0],"parents":[2147483647,0,0,1,1,2,2,3,3,5,5,6,6],"right_children":[2,4,6,8,-1,10,12,-1,-1,-1,-1,-1,-1],"split_conditions":[3E0,1.85E2,6E0,1.026E1,-0E0,2E1,2E0,7.14173E-4,-0E0,-0E0,7.4192113E-4,-6.4713246E-4,5.0013105E-4],"split_indices":[10,26,1,28,0,7,8,0,0,0,0,0,0],"split_type":[0,0,0,0,0,0,0,0,0,0,0,0,0],"sum_hessian":[1.869585E3,4.858476E2,1.3837374E3,4.626087E2,2.3238903E1,2.7713803E2,1.1065994E3,4.5236426E2,1.0244437E1,6.4918694E0,2.7064618E2,9.2441895E2,1.8218039E2],"tree_param":{"num_deleted":"0","num_feature":"32","num_nodes":"13","size_leaf_vector":"1"}},{"base_weights":[-7.643216E-3,9.8330677E-1,-3.811181E-1,1.0098966E0,-0E0,9.54834E-1,-6.764371E-1,7.0276385E-4,-0E0,7.3609967E-4,2.31957E-5,-6.7792076E-4,5.006165E-4],"categories":[],"categories_nodes":[],"categories_segments":[],"categories_sizes":[],"default_left":[0,0,0,0,0,0,0,0,0,0,0,0,0],"id":75,"left_children":[1,3,5,7,-1,9,11,-1,-1,-1,-1,-1,-1],"loss_changes":[6.6857837E2,1.8701965E1,5.218348E2,1.5629913E1,0E0,1.8366562E1,4.888682E2,0E0,0E0,0E0,0E0,0E0,0E0],"parents":[2147483647,0,0,1,1,2,2,3,3,5,5,6,6],"right_children":[2,4,6,8,-1,10,12,-1,-1,-1,-1,-1,-1],"split_conditions":[3E0,2.2E2,6E0,4.541926E1,-0E0,1.29E2,2E0,7.0276385E-4,-0E0,7.3609967E-4,2.31957E-5,-6.7792076E-4,5.006165E-4],"split_indices":[10,26,1,9,0,26,8,0,0,0,0,0,0],"split_type":[0,0,0,0,0,0,0,0,0,0,0,0,0],"sum_hessian":[1.8166357E3,4.913389E2,1.3252969E3,4.8409152E2,7.2473507E0,2.3494736E2,1.0903495E3,4.8109323E2,2.998311E0,1.999864E2,3.4960957E1,8.951697E2,1.9517978E2],"tree_param":{"num_deleted":"0","num_feature":"32","num_nodes":"13","size_leaf_vector":"1"}},{"base_weights":[-2.5685124E-2,-2.1607877E-1,1.0296562E0,-4.1480875E-1,8.0900943E-1,-0E0,1.0637808E0,2.536832E-4,-4.1404454E-4,-0E0,5.9811416E-4,-0E0,7.462272E-4],"categories":[],"categories_nodes":[],"categories_segments":[],"categories_sizes":[],"default_left":[0,0,0,0,0,0,0,0,0,0,0,0,0],"id":76,"left_children":[1,3,5,7,9,-1,11,-1,-1,-1,-1,-1,-1],"loss_changes":[3.6187766E2,3.1462585E2,1.6174805E1,1.9926808E2,1.3963913E1,0E0,1.3818787E1,0E0,0E0,0E0,0E0,0E0,0E0],"parents":[2147483647,0,0,1,1,2,2,3,3,4,4,6,6],"right_children":[2,4,6,8,10,-1,12,-1,-1,-1,-1,-1,-1],"split_conditions":[8.75E-1,2E0,2.9748137E0,2.1E1,6.451613E-2,-0E0,-5E1,2.536832E-4,-4.1404454E-4,-0E0,5.9811416E-4,-0E0,7.462272E-4],"split_indices":[27,8,4,26,27,0,14,0,0,0,0,0,0],"split_type":[0,0,0,0,0,0,0,0,0,0,0,0,0],"sum_hessian":[1.8291213E3,1.5562296E3,2.7289178E2,1.3101177E3,2.461119E2,2.9969213E0,2.6989487E2,2.4866693E2,1.0614507E3,1.7992268E1,2.2811963E2,2.4989364E0,2.6739594E2],"tree_param":{"num_deleted":"0","num_feature":"32","num_nodes":"13","size_leaf_vector":"1"}},{"base_weights":[-0E0,9.6825206E-1,-3.278613E-1,-0E0,1.0431074E0,-6.067449E-1,9.6989375E-1,3.3336272E-4,-7.332937E-4,7.327982E-4,-0E0,-6.055014E-4,5.1453494E-4,1.3333463E-4,7.961522E-4],"categories":[],"categories_nodes":[],"categories_segments":[],"categories_sizes":[],"default_left":[0,0,0,0,0,0,0,0,0,0,0,0,0,0,0],"id":77,"left_children":[1,3,5,7,9,11,13,-1,-1,-1,-1,-1,-1,-1,-1],"loss_changes":[5.877663E2,2.9706268E1,4.9922168E2,1.8313923E1,1.9078857E1,4.3754037E2,2.6112518E1,0E0,0E0,0E0,0E0,0E0,0E0,0E0,0E0],"parents":[2147483647,0,0,1,1,2,2,3,3,4,4,5,5,6,6],"right_children":[2,4,6,8,10,12,14,-1,-1,-1,-1,-1,-1,-1,-1],"split_conditions":[3E0,-2.7E1,1E0,2.6E-1,1.1E1,2E0,1.4E0,3.3336272E-4,-7.332937E-4,7.327982E-4,-0E0,-6.055014E-4,5.1453494E-4,1.3333463E-4,7.961522E-4],"split_indices":[10,14,27,13,28,8,27,0,0,0,0,0,0,0,0],"split_type":[0,0,0,0,0,0,0,0,0,0,0,0,0,0,0],"sum_hessian":[1.8513387E3,4.6711615E2,1.3842227E3,3.7473442E1,4.296427E2,1.1445463E3,2.3967633E2,2.8728739E1,8.744702E0,4.2264633E2,6.996375E0,9.541209E2,1.904254E2,5.643855E1,1.8323778E2],"tree_param":{"num_deleted":"0","num_feature":"32","num_nodes":"15","size_leaf_vector":"1"}},{"base_weights":[3.125925E-2,1.000077E0,-3.0148965E-1,-0E0,1.045287E0,-5.8644235E-1,9.287918E-1,2.618492E-4,-5.0640246E-4,7.284421E-4,-0E0,5.4927426E-4,-5.496987E-4,6.671036E-4,-1.0246682E-4],"categories":[],"categories_nodes":[],"categories_segments":[],"categories_sizes":[],"default_left":[0,0,0,0,0,0,0,0,0,0,0,0,0,0,0],"id":78,"left_children":[1,3,5,7,9,11,13,-1,-1,-1,-1,-1,-1,-1,-1],"loss_changes":[6.0055096E2,2.07128E1,4.779054E2,6.3694744E0,1.3628265E1,3.3986124E2,1.938707E1,0E0,0E0,0E0,0E0,0E0,0E0,0E0,0E0],"parents":[2147483647,0,0,1,1,2,2,3,3,4,4,5,5,6,6],"right_children":[2,4,6,8,10,12,14,-1,-1,-1,-1,-1,-1,-1,-1],"split_conditions":[3E0,5.6910243E0,1E0,4E0,9.9071625E1,5E0,4E1,2.618492E-4,-5.0640246E-4,7.284421E-4,-0E0,5.4927426E-4,-5.496987E-4,6.671036E-4,-1.0246682E-4],"split_indices":[10,4,27,3,31,2,2,0,0,0,0,0,0,0,0],"split_type":[0,0,0,0,0,0,0,0,0,0,0,0,0,0,0],"sum_hessian":[1.8447993E3,4.7684888E2,1.3679504E3,2.1484371E1,4.553645E2,1.1160459E3,2.5190453E2,1.5239047E1,6.2453246E0,4.4936813E2,5.9963703E0,1.4646275E2,9.695831E2,2.4790782E2,3.9967096E0],"tree_param":{"num_deleted":"0","num_feature":"32","num_nodes":"15","size_leaf_vector":"1"}},{"base_weights":[-6.346169E-2,9.142221E-1,-3.9771885E-1,9.4920915E-1,-3.1283922E-5,1.0091535E0,-6.8984264E-1,6.6853076E-4,-0E0,7.1508856E-4,-0E0,-6.660468E-4,4.7926305E-4],"categories":[],"categories_nodes":[],"categories_segments":[],"categories_sizes":[],"default_left":[0,0,0,0,0,0,0,0,0,0,0,0,0],"id":79,"left_children":[1,3,5,7,-1,9,11,-1,-1,-1,-1,-1,-1],"loss_changes":[5.7947394E2,2.1870453E1,5.47285E2,1.5329315E1,0E0,1.4528671E1,4.438413E2,0E0,0E0,0E0,0E0,0E0,0E0],"parents":[2147483647,0,0,1,1,2,2,3,3,5,5,6,6],"right_children":[2,4,6,8,-1,10,12,-1,-1,-1,-1,-1,-1],"split_conditions":[3E0,1.056E1,6E0,1.21346846E-1,-3.1283922E-5,4E1,2E0,6.6853076E-4,-0E0,7.1508856E-4,-0E0,-6.660468E-4,4.7926305E-4],"split_indices":[10,28,1,24,0,2,8,0,0,0,0,0,0],"split_type":[0,0,0,0,0,0,0,0,0,0,0,0,0],"sum_hessian":[1.7828706E3,4.4811035E2,1.3347603E3,4.3986496E2,8.245393E0,2.2468279E2,1.1100775E3,4.296215E2,1.024345E1,2.21935E2,2.7477922E0,9.2589923E2,